{"learner":{"attributes":{"scikit_learn":"{\"_estimator_type\": \"regressor\"}"},"feature_names":[],"feature_types":[],"gradient_booster":{"model":{"gbtree_model_param":{"num_parallel_tree":"1","num_trees":"500"},"iteration_indptr":[0,1,2,3,4,5,6,7,8,9,10,11,12,13,14,15,16,17,18,19,20,21,22,23,24,25,26,27,28,29,30,31,32,33,34,35,36,37,38,39,40,41,42,43,44,45,46,47,48,49,50,51,52,53,54,55,56,57,58,59,60,61,62,63,64,65,66,67,68,69,70,71,72,73,74,75,76,77,78,79,80,81,82,83,84,85,86,87,88,89,90,91,92,93,94,95,96,97,98,99,100,101,102,103,104,105,106,107,108,109,110,111,112,113,114,115,116,117,118,119,120,121,122,123,124,125,126,127,128,129,130,131,132,133,134,135,136,137,138,139,140,141,142,143,144,145,146,147,148,149,150,151,152,153,154,155,156,157,158,159,160,161,162,163,164,165,166,167,168,169,170,171,172,173,174,175,176,177,178,179,180,181,182,183,184,185,186,187,188,189,190,191,192,193,194,195,196,197,198,199,200,201,202,203,204,205,206,207,208,209,210,211,212,213,214,215,216,217,218,219,220,221,222,223,224,225,226,227,228,229,230,231,232,233,234,235,236,237,238,239,240,241,242,243,244,245,246,247,248,249,250,251,252,253,254,255,256,257,258,259,260,261,262,263,264,265,266,267,268,269,270,271,272,273,274,275,276,277,278,279,280,281,282,283,284,285,286,287,288,289,290,291,292,293,294,295,296,297,298,299,300,301,302,303,304,305,306,307,308,309,310,311,312,313,314,315,316,317,318,319,320,321,322,323,324,325,326,327,328,329,330,331,332,333,334,335,336,337,338,339,340,341,342,343,344,345,346,347,348,349,350,351,352,353,354,355,356,357,358,359,360,361,362,363,364,365,366,367,368,369,370,371,372,373,374,375,376,377,378,379,380,381,382,383,384,385,386,387,388,389,390,391,392,393,394,395,396,397,398,399,400,401,402,403,404,405,406,407,408,409,410,411,412,413,414,415,416,417,418,419,420,421,422,423,424,425,426,427,428,429,430,431,432,433,434,435,436,437,438,439,440,441,442,443,444,445,446,447,448,449,450,451,452,453,454,455,456,457,458,459,460,461,462,463,464,465,466,467,468,469,470,471,472,473,474,475,476,477,478,479,480,481,482,483,484,485,486,487,488,489,490,491,492,493,494,495,496,497,498,499,500],"tree_info":[0,0,0,0,0,0,0,0,0,0,0,0,0,0,0,0,0,0,0,0,0,0,0,0,0,0,0,0,0,0,0,0,0,0,0,0,0,0,0,0,0,0,0,0,0,0,0,0,0,0,0,0,0,0,0,0,0,0,0,0,0,0,0,0,0,0,0,0,0,0,0,0,0,0,0,0,0,0,0,0,0,0,0,0,0,0,0,0,0,0,0,0,0,0,0,0,0,0,0,0,0,0,0,0,0,0,0,0,0,0,0,0,0,0,0,0,0,0,0,0,0,0,0,0,0,0,0,0,0,0,0,0,0,0,0,0,0,0,0,0,0,0,0,0,0,0,0,0,0,0,0,0,0,0,0,0,0,0,0,0,0,0,0,0,0,0,0,0,0,0,0,0,0,0,0,0,0,0,0,0,0,0,0,0,0,0,0,0,0,0,0,0,0,0,0,0,0,0,0,0,0,0,0,0,0,0,0,0,0,0,0,0,0,0,0,0,0,0,0,0,0,0,0,0,0,0,0,0,0,0,0,0,0,0,0,0,0,0,0,0,0,0,0,0,0,0,0,0,0,0,0,0,0,0,0,0,0,0,0,0,0,0,0,0,0,0,0,0,0,0,0,0,0,0,0,0,0,0,0,0,0,0,0,0,0,0,0,0,0,0,0,0,0,0,0,0,0,0,0,0,0,0,0,0,0,0,0,0,0,0,0,0,0,0,0,0,0,0,0,0,0,0,0,0,0,0,0,0,0,0,0,0,0,0,0,0,0,0,0,0,0,0,0,0,0,0,0,0,0,0,0,0,0,0,0,0,0,0,0,0,0,0,0,0,0,0,0,0,0,0,0,0,0,0,0,0,0,0,0,0,0,0,0,0,0,0,0,0,0,0,0,0,0,0,0,0,0,0,0,0,0,0,0,0,0,0,0,0,0,0,0,0,0,0,0,0,0,0,0,0,0,0,0,0,0,0,0,0,0,0,0,0,0,0,0,0,0,0,0,0,0,0,0,0,0,0,0,0,0,0,0,0,0,0,0,0,0,0,0,0,0,0,0,0,0,0,0,0,0,0,0,0,0,0,0,0,0,0,0,0,0,0,0,0,0,0,0,0,0,0,0,0,0,0,0,0,0,0,0,0],"trees":[{"base_weights":[5.698303E-7,1.6227087E0,-2.7895987E0,3.6602275E0,8.187806E-1,-1.5320537E0,-5.620552E0,5.4711383E-2,3.0199528E-2,1.5586762E-2,1.6389134E-3,-1.2111351E-2,-2.6731916E-2,-5.873418E-2,-2.6982183E-2],"categories":[],"categories_nodes":[],"categories_segments":[],"categories_sizes":[],"default_left":[0,0,0,0,0,0,0,0,0,0,0,0,0,0,0],"id":0,"left_children":[1,3,5,7,9,11,13,-1,-1,-1,-1,-1,-1,-1,-1],"loss_changes":[1.0954626E3,2.4761987E2,3.0823358E2,3.3335083E1,5.3529564E1,1.983377E1,4.104065E0,0E0,0E0,0E0,0E0,0E0,0E0,0E0,0E0],"parents":[2147483647,0,0,1,1,2,2,3,3,4,4,5,5,6,6],"right_children":[2,4,6,8,10,12,14,-1,-1,-1,-1,-1,-1,-1,-1],"split_conditions":[5E-1,-5E-1,1.5E0,-1.6666667E-1,0E0,1.1666666E0,9.7E0,5.4711383E-2,3.0199528E-2,1.5586762E-2,1.6389134E-3,-1.2111351E-2,-2.6731916E-2,-5.873418E-2,-2.6982183E-2],"split_indices":[2,2,2,9,2,9,11,0,0,0,0,0,0,0,0],"split_type":[0,0,0,0,0,0,0,0,0,0,0,0,0,0,0],"sum_hessian":[2.4E2,1.52E2,8.8E1,4.2E1,1.1E2,6.2E1,2.6E1,9E0,3.3E1,5.1E1,5.9E1,5E1,1.2E1,2.3E1,3E0],"tree_param":{"num_deleted":"0","num_feature":"12","num_nodes":"15","size_leaf_vector":"1"}},{"base_weights":[-9.2803195E-5,1.6071483E0,-2.7631018E0,3.625599E0,8.1074715E-1,-1.5173492E0,-5.5675206E0,3.130295E-2,9.186221E-2,1.5433891E-2,1.6227836E-3,-1.199261E-2,-2.6485147E-2,-5.81713E-2,-2.6779823E-2],"categories":[],"categories_nodes":[],"categories_segments":[],"categories_sizes":[],"default_left":[0,0,0,0,0,0,0,0,0,0,0,0,0,0,0],"id":1,"left_children":[1,3,5,7,9,11,13,-1,-1,-1,-1,-1,-1,-1,-1],"loss_changes":[1.0746787E3,2.4300757E2,3.0248358E2,8.967493E1,5.248513E1,1.949179E1,3.895691E0,0E0,0E0,0E0,0E0,0E0,0E0,0E0,0E0],"parents":[2147483647,0,0,1,1,2,2,3,3,4,4,5,5,6,6],"right_children":[2,4,6,8,10,12,14,-1,-1,-1,-1,-1,-1,-1,-1],"split_conditions":[5E-1,-5E-1,1.5E0,5E0,0E0,1.1666666E0,9.7E0,3.130295E-2,9.186221E-2,1.5433891E-2,1.6227836E-3,-1.199261E-2,-2.6485147E-2,-5.81713E-2,-2.6779823E-2],"split_indices":[2,2,2,6,2,9,11,0,0,0,0,0,0,0,0],"split_type":[0,0,0,0,0,0,0,0,0,0,0,0,0,0,0],"sum_hessian":[2.4E2,1.52E2,8.8E1,4.2E1,1.1E2,6.2E1,2.6E1,4E1,2E0,5.1E1,5.9E1,5E1,1.2E1,2.3E1,3E0],"tree_param":{"num_deleted":"0","num_feature":"12","num_nodes":"15","size_leaf_vector":"1"}},{"base_weights":[-2.189098E-5,1.5919937E0,-2.7368574E0,3.592207E0,8.02794E-1,-1.5027858E0,-5.5149928E-2,5.381614E-2,2.9602574E-2,1.5282516E-2,1.6068413E-3,-1.1875027E-2,-2.6240665E-2],"categories":[],"categories_nodes":[],"categories_segments":[],"categories_sizes":[],"default_left":[0,0,0,0,0,0,0,0,0,0,0,0,0],"id":2,"left_children":[1,3,5,7,9,11,-1,-1,-1,-1,-1,-1,-1],"loss_changes":[1.0544146E3,2.3863705E2,2.9684125E2,3.269409E1,5.146084E1,1.9155731E1,0E0,0E0,0E0,0E0,0E0,0E0,0E0],"parents":[2147483647,0,0,1,1,2,2,3,3,4,4,5,5],"right_children":[2,4,6,8,10,12,-1,-1,-1,-1,-1,-1,-1],"split_conditions":[5E-1,-5E-1,1.5E0,-1.6666667E-1,0E0,1.1666666E0,-5.5149928E-2,5.381614E-2,2.9602574E-2,1.5282516E-2,1.6068413E-3,-1.1875027E-2,-2.6240665E-2],"split_indices":[2,2,2,9,2,9,0,0,0,0,0,0,0],"split_type":[0,0,0,0,0,0,0,0,0,0,0,0,0],"sum_hessian":[2.4E2,1.52E2,8.8E1,4.2E1,1.1E2,6.2E1,2.6E1,9E0,3.3E1,5.1E1,5.9E1,5E1,1.2E1],"tree_param":{"num_deleted":"0","num_feature":"12","num_nodes":"13","size_leaf_vector":"1"}},{"base_weights":[7.91431E-6,1.57673E0,-2.7105367E0,3.558225E0,7.949191E-1,-1.4883628E0,-5.461886E0,5.3331785E-2,2.9315261E-2,1.5132638E-2,1.5910491E-3,-1.0503354E-2,-2.2569438E-2,-5.708532E-2,-2.616536E-2],"categories":[],"categories_nodes":[],"categories_segments":[],"categories_sizes":[],"default_left":[0,0,0,0,0,0,0,0,0,0,0,0,0,0,0],"id":3,"left_children":[1,3,5,7,9,11,13,-1,-1,-1,-1,-1,-1,-1,-1],"loss_changes":[1.0342537E3,2.3419211E2,2.9114465E2,3.2197205E1,5.0456688E1,1.8839005E1,4.011902E0,0E0,0E0,0E0,0E0,0E0,0E0,0E0,0E0],"parents":[2147483647,0,0,1,1,2,2,3,3,4,4,5,5,6,6],"right_children":[2,4,6,8,10,12,14,-1,-1,-1,-1,-1,-1,-1,-1],"split_conditions":[5E-1,-5E-1,1.5E0,-1.6666667E-1,0E0,8.333333E-1,9.7E0,5.3331785E-2,2.9315261E-2,1.5132638E-2,1.5910491E-3,-1.0503354E-2,-2.2569438E-2,-5.708532E-2,-2.616536E-2],"split_indices":[2,2,2,9,2,9,11,0,0,0,0,0,0,0,0],"split_type":[0,0,0,0,0,0,0,0,0,0,0,0,0,0,0],"sum_hessian":[2.4E2,1.52E2,8.8E1,4.2E1,1.1E2,6.2E1,2.6E1,9E0,3.3E1,5.1E1,5.9E1,4.1E1,2.1E1,2.3E1,3E0],"tree_param":{"num_deleted":"0","num_feature":"12","num_nodes":"15","size_leaf_vector":"1"}},{"base_weights":[-6.2887106E-5,1.5616119E0,-2.684739E0,3.5245638E0,7.871206E-1,-1.4740056E0,-5.4103494E0,3.0340392E-2,9.0535454E-2,1.4984218E-2,1.5754071E-3,-1.1634352E-2,-2.5790121E-2,-5.6538243E-2,-2.5969123E-2],"categories":[],"categories_nodes":[],"categories_segments":[],"categories_sizes":[],"default_left":[0,0,0,0,0,0,0,0,0,0,0,0,0,0,0],"id":4,"left_children":[1,3,5,7,9,11,13,-1,-1,-1,-1,-1,-1,-1,-1],"loss_changes":[1.01460706E3,2.2982999E2,2.85724E2,8.915155E1,4.947207E1,1.8619965E1,3.812622E0,0E0,0E0,0E0,0E0,0E0,0E0,0E0,0E0],"parents":[2147483647,0,0,1,1,2,2,3,3,4,4,5,5,6,6],"right_children":[2,4,6,8,10,12,14,-1,-1,-1,-1,-1,-1,-1,-1],"split_conditions":[5E-1,-5E-1,1.5E0,5E0,0E0,1.1666666E0,9.7E0,3.0340392E-2,9.0535454E-2,1.4984218E-2,1.5754071E-3,-1.1634352E-2,-2.5790121E-2,-5.6538243E-2,-2.5969123E-2],"split_indices":[2,2,2,6,2,9,11,0,0,0,0,0,0,0,0],"split_type":[0,0,0,0,0,0,0,0,0,0,0,0,0,0,0],"sum_hessian":[2.4E2,1.52E2,8.8E1,4.2E1,1.1E2,6.2E1,2.6E1,4E1,2E0,5.1E1,5.9E1,5E1,1.2E1,2.3E1,3E0],"tree_param":{"num_deleted":"0","num_feature":"12","num_nodes":"15","size_leaf_vector":"1"}},{"base_weights":[1.0209459E-5,1.5468937E0,-2.659239E0,3.4921277E0,7.7939856E-1,-1.459859E0,-5.359302E0,3.0044371E-2,8.99319E-2,1.483726E-2,1.5599149E-3,-1.1520285E-2,-2.5552047E-2,-5.599642E-2,-2.5774345E-2],"categories":[],"categories_nodes":[],"categories_segments":[],"categories_sizes":[],"default_left":[0,0,0,0,0,0,0,0,0,0,0,0,0,0,0],"id":5,"left_children":[1,3,5,7,9,11,13,-1,-1,-1,-1,-1,-1,-1,-1],"loss_changes":[9.954788E2,2.2570068E2,2.8039392E2,8.8341675E1,4.850672E1,1.8298721E1,3.6193848E0,0E0,0E0,0E0,0E0,0E0,0E0,0E0,0E0],"parents":[2147483647,0,0,1,1,2,2,3,3,4,4,5,5,6,6],"right_children":[2,4,6,8,10,12,14,-1,-1,-1,-1,-1,-1,-1,-1],"split_conditions":[5E-1,-5E-1,1.5E0,5E0,0E0,1.1666666E0,9.7E0,3.0044371E-2,8.99319E-2,1.483726E-2,1.5599149E-3,-1.1520285E-2,-2.5552047E-2,-5.599642E-2,-2.5774345E-2],"split_indices":[2,2,2,6,2,9,11,0,0,0,0,0,0,0,0],"split_type":[0,0,0,0,0,0,0,0,0,0,0,0,0,0,0],"sum_hessian":[2.4E2,1.52E2,8.8E1,4.2E1,1.1E2,6.2E1,2.6E1,4E1,2E0,5.1E1,5.9E1,5E1,1.2E1,2.3E1,3E0],"tree_param":{"num_deleted":"0","num_feature":"12","num_nodes":"15","size_leaf_vector":"1"}},{"base_weights":[8.308442E-5,-1.1204888E-1,8.933235E-2,5.323959E-1,-1.4239928E0,2.0722138E-2,2.866217E-3,-7.551328E-3,-2.9253326E-2],"categories":[],"categories_nodes":[],"categories_segments":[],"categories_sizes":[],"default_left":[0,0,0,0,0,0,0,0,0],"id":6,"left_children":[1,3,-1,5,7,-1,-1,-1,-1],"loss_changes":[2.4240872E2,2.0282675E2,0E0,6.033613E1,7.712169E1,0E0,0E0,0E0,0E0],"parents":[2147483647,0,0,1,1,3,3,4,4],"right_children":[2,4,-1,6,8,-1,-1,-1,-1],"split_conditions":[1.55E1,5E-1,8.933235E-2,-3.75E-1,6.666667E-1,2.0722138E-2,2.866217E-3,-7.551328E-3,-2.9253326E-2],"split_indices":[6,10,0,10,11,0,0,0,0],"split_type":[0,0,0,0,0,0,0,0,0],"sum_hessian":[2.4E2,2.38E2,2E0,1.6E2,7.8E1,2.1E1,1.39E2,5.5E1,2.3E1],"tree_param":{"num_deleted":"0","num_feature":"12","num_nodes":"9","size_leaf_vector":"1"}},{"base_weights":[3.9949853E-4,1.5290498E0,-2.6275094E0,3.4499235E0,7.711522E-1,-1.4417785E0,-5.2968993E0,5.1833715E-2,2.8386176E-2,1.4666408E-2,1.5554281E-3,-1.01397205E-2,-2.1929646E-2,-5.5349797E-2,-2.5441913E-2],"categories":[],"categories_nodes":[],"categories_segments":[],"categories_sizes":[],"default_left":[0,0,0,0,0,0,0,0,0,0,0,0,0,0,0],"id":7,"left_children":[1,3,5,7,9,11,13,-1,-1,-1,-1,-1,-1,-1,-1],"loss_changes":[9.7215155E2,2.200809E2,2.740639E2,3.085205E1,4.7296448E1,1.8022202E1,3.612915E0,0E0,0E0,0E0,0E0,0E0,0E0,0E0,0E0],"parents":[2147483647,0,0,1,1,2,2,3,3,4,4,5,5,6,6],"right_children":[2,4,6,8,10,12,14,-1,-1,-1,-1,-1,-1,-1,-1],"split_conditions":[5E-1,-5E-1,1.5E0,-1.6666667E-1,0E0,8.333333E-1,9.7E0,5.1833715E-2,2.8386176E-2,1.4666408E-2,1.5554281E-3,-1.01397205E-2,-2.1929646E-2,-5.5349797E-2,-2.5441913E-2],"split_indices":[2,2,2,9,2,9,11,0,0,0,0,0,0,0,0],"split_type":[0,0,0,0,0,0,0,0,0,0,0,0,0,0,0],"sum_hessian":[2.4E2,1.52E2,8.8E1,4.2E1,1.1E2,6.2E1,2.6E1,9E0,3.3E1,5.1E1,5.9E1,4.1E1,2.1E1,2.3E1,3E0],"tree_param":{"num_deleted":"0","num_feature":"12","num_nodes":"15","size_leaf_vector":"1"}},{"base_weights":[3.2719338E-4,1.514389E0,-2.6025019E0,3.4172907E0,7.635858E-1,-1.4278696E0,-5.2469213E-2,5.1367205E-2,2.8110674E-2,1.4522553E-2,1.5401236E-3,-1.1248827E-2,-2.5066745E-2],"categories":[],"categories_nodes":[],"categories_segments":[],"categories_sizes":[],"default_left":[0,0,0,0,0,0,0,0,0,0,0,0,0],"id":8,"left_children":[1,3,5,7,9,11,-1,-1,-1,-1,-1,-1,-1],"loss_changes":[9.5368463E2,2.1598242E2,2.6896173E2,3.0381775E1,4.6373543E1,1.7772705E1,0E0,0E0,0E0,0E0,0E0,0E0,0E0],"parents":[2147483647,0,0,1,1,2,2,3,3,4,4,5,5],"right_children":[2,4,6,8,10,12,-1,-1,-1,-1,-1,-1,-1],"split_conditions":[5E-1,-5E-1,1.5E0,-1.6666667E-1,0E0,1.1666666E0,-5.2469213E-2,5.1367205E-2,2.8110674E-2,1.4522553E-2,1.5401236E-3,-1.1248827E-2,-2.5066745E-2],"split_indices":[2,2,2,9,2,9,0,0,0,0,0,0,0],"split_type":[0,0,0,0,0,0,0,0,0,0,0,0,0],"sum_hessian":[2.4E2,1.52E2,8.8E1,4.2E1,1.1E2,6.2E1,2.6E1,9E0,3.3E1,5.1E1,5.9E1,5E1,1.2E1],"tree_param":{"num_deleted":"0","num_feature":"12","num_nodes":"13","size_leaf_vector":"1"}},{"base_weights":[3.5160113E-4,1.4998691E0,-2.5774746E0,3.384966E0,7.560941E-1,-1.4141668E0,-5.1963973E0,2.9058268E-2,8.804878E-2,1.4380121E-2,1.524969E-3,-9.930923E-3,-2.1537561E-2,-5.7260927E-2,-3.5007738E-2],"categories":[],"categories_nodes":[],"categories_segments":[],"categories_sizes":[],"default_left":[0,0,0,0,0,0,0,0,0,0,0,0,0,0,0],"id":9,"left_children":[1,3,5,7,9,11,13,-1,-1,-1,-1,-1,-1,-1,-1],"loss_changes":[9.354503E2,2.1196011E2,2.6380005E2,8.608093E1,4.546873E1,1.748072E1,4.204712E0,0E0,0E0,0E0,0E0,0E0,0E0,0E0,0E0],"parents":[2147483647,0,0,1,1,2,2,3,3,4,4,5,5,6,6],"right_children":[2,4,6,8,10,12,14,-1,-1,-1,-1,-1,-1,-1,-1],"split_conditions":[5E-1,-5E-1,1.5E0,5E0,0E0,8.333333E-1,5E-1,2.9058268E-2,8.804878E-2,1.4380121E-2,1.524969E-3,-9.930923E-3,-2.1537561E-2,-5.7260927E-2,-3.5007738E-2],"split_indices":[2,2,2,6,2,9,6,0,0,0,0,0,0,0,0],"split_type":[0,0,0,0,0,0,0,0,0,0,0,0,0,0,0],"sum_hessian":[2.4E2,1.52E2,8.8E1,4.2E1,1.1E2,6.2E1,2.6E1,4E1,2E0,5.1E1,5.9E1,4.1E1,2.1E1,1.8E1,8E0],"tree_param":{"num_deleted":"0","num_feature":"12","num_nodes":"15","size_leaf_vector":"1"}},{"base_weights":[3.8628164E-4,1.4857395E0,-2.5530903E0,3.3538413E0,7.4867535E-1,-1.4005255E0,-5.14785E0,2.8774789E-2,8.746181E-2,1.4239073E-2,1.5099646E-3,-1.1020702E-2,-2.4636552E-2,-5.6718443E-2,-3.469656E-2],"categories":[],"categories_nodes":[],"categories_segments":[],"categories_sizes":[],"default_left":[0,0,0,0,0,0,0,0,0,0,0,0,0,0,0],"id":10,"left_children":[1,3,5,7,9,11,13,-1,-1,-1,-1,-1,-1,-1,-1],"loss_changes":[9.178616E2,2.0815643E2,2.589563E2,8.5287445E1,4.458147E1,1.7274559E1,4.0634155E0,0E0,0E0,0E0,0E0,0E0,0E0,0E0,0E0],"parents":[2147483647,0,0,1,1,2,2,3,3,4,4,5,5,6,6],"right_children":[2,4,6,8,10,12,14,-1,-1,-1,-1,-1,-1,-1,-1],"split_conditions":[5E-1,-5E-1,1.5E0,5E0,0E0,1.1666666E0,5E-1,2.8774789E-2,8.746181E-2,1.4239073E-2,1.5099646E-3,-1.1020702E-2,-2.4636552E-2,-5.6718443E-2,-3.469656E-2],"split_indices":[2,2,2,6,2,9,6,0,0,0,0,0,0,0,0],"split_type":[0,0,0,0,0,0,0,0,0,0,0,0,0,0,0],"sum_hessian":[2.4E2,1.52E2,8.8E1,4.2E1,1.1E2,6.2E1,2.6E1,4E1,2E0,5.1E1,5.9E1,5E1,1.2E1,1.8E1,8E0],"tree_param":{"num_deleted":"0","num_feature":"12","num_nodes":"15","size_leaf_vector":"1"}},{"base_weights":[4.0222105E-4,1.4717442E0,-2.528988E0,3.3230064E0,7.413296E-1,-1.3870864E0,-5.0997586E0,5.014905E-2,2.7276536E-2,1.4099408E-2,1.4951102E-3,-1.0912657E-2,-2.440915E-2,-5.3334925E-2,-2.4224147E-2],"categories":[],"categories_nodes":[],"categories_segments":[],"categories_sizes":[],"default_left":[0,0,0,0,0,0,0,0,0,0,0,0,0,0,0],"id":11,"left_children":[1,3,5,7,9,11,13,-1,-1,-1,-1,-1,-1,-1,-1],"loss_changes":[9.0062714E2,2.0442148E2,2.5419165E2,2.9634003E1,4.3711514E1,1.697622E1,3.9763184E0,0E0,0E0,0E0,0E0,0E0,0E0,0E0,0E0],"parents":[2147483647,0,0,1,1,2,2,3,3,4,4,5,5,6,6],"right_children":[2,4,6,8,10,12,14,-1,-1,-1,-1,-1,-1,-1,-1],"split_conditions":[5E-1,-5E-1,1.5E0,-1.6666667E-1,0E0,1.1666666E0,9.7E0,5.014905E-2,2.7276536E-2,1.4099408E-2,1.4951102E-3,-1.0912657E-2,-2.440915E-2,-5.3334925E-2,-2.4224147E-2],"split_indices":[2,2,2,9,2,9,11,0,0,0,0,0,0,0,0],"split_type":[0,0,0,0,0,0,0,0,0,0,0,0,0,0,0],"sum_hessian":[2.4E2,1.52E2,8.8E1,4.2E1,1.1E2,6.2E1,2.6E1,9E0,3.3E1,5.1E1,5.9E1,5E1,1.2E1,2.3E1,3E0],"tree_param":{"num_deleted":"0","num_feature":"12","num_nodes":"15","size_leaf_vector":"1"}},{"base_weights":[3.1616085E-4,1.4576352E0,-2.504966E0,3.2915783E0,7.340568E-1,-1.373775E0,-5.0516353E0,2.8188914E-2,8.654439E-2,1.3961129E-2,1.4804058E-3,-9.619868E-3,-2.097472E-2,-5.5691183E-2,-3.397878E-2],"categories":[],"categories_nodes":[],"categories_segments":[],"categories_sizes":[],"default_left":[0,0,0,0,0,0,0,0,0,0,0,0,0,0,0],"id":12,"left_children":[1,3,5,7,9,11,13,-1,-1,-1,-1,-1,-1,-1,-1],"loss_changes":[8.8354126E2,2.0061502E2,2.4944861E2,8.4607056E1,4.2858612E1,1.6756874E1,4.1832275E0,0E0,0E0,0E0,0E0,0E0,0E0,0E0,0E0],"parents":[2147483647,0,0,1,1,2,2,3,3,4,4,5,5,6,6],"right_children":[2,4,6,8,10,12,14,-1,-1,-1,-1,-1,-1,-1,-1],"split_conditions":[5E-1,-5E-1,1.5E0,5E0,0E0,8.333333E-1,5E-1,2.8188914E-2,8.654439E-2,1.3961129E-2,1.4804058E-3,-9.619868E-3,-2.097472E-2,-5.5691183E-2,-3.397878E-2],"split_indices":[2,2,2,6,2,9,6,0,0,0,0,0,0,0,0],"split_type":[0,0,0,0,0,0,0,0,0,0,0,0,0,0,0],"sum_hessian":[2.4E2,1.52E2,8.8E1,4.2E1,1.1E2,6.2E1,2.6E1,4E1,2E0,5.1E1,5.9E1,4.1E1,2.1E1,1.8E1,8E0],"tree_param":{"num_deleted":"0","num_feature":"12","num_nodes":"15","size_leaf_vector":"1"}},{"base_weights":[3.5370633E-4,1.443909E0,-2.481268E0,3.2613292E0,7.268552E-1,-1.3605229E0,-5.004441E0,2.7913885E-2,8.596744E-2,1.3824196E-2,1.4658514E-3,-1.0691304E-2,-2.3990225E-2,-5.516359E-2,-3.367676E-2],"categories":[],"categories_nodes":[],"categories_segments":[],"categories_sizes":[],"default_left":[0,0,0,0,0,0,0,0,0,0,0,0,0,0,0],"id":13,"left_children":[1,3,5,7,9,11,13,-1,-1,-1,-1,-1,-1,-1,-1],"loss_changes":[8.66931E2,1.9701724E2,2.4486853E2,8.38183E1,4.2022236E1,1.6499634E1,4.0456543E0,0E0,0E0,0E0,0E0,0E0,0E0,0E0,0E0],"parents":[2147483647,0,0,1,1,2,2,3,3,4,4,5,5,6,6],"right_children":[2,4,6,8,10,12,14,-1,-1,-1,-1,-1,-1,-1,-1],"split_conditions":[5E-1,-5E-1,1.5E0,5E0,0E0,1.1666666E0,5E-1,2.7913885E-2,8.596744E-2,1.3824196E-2,1.4658514E-3,-1.0691304E-2,-2.3990225E-2,-5.516359E-2,-3.367676E-2],"split_indices":[2,2,2,6,2,9,6,0,0,0,0,0,0,0,0],"split_type":[0,0,0,0,0,0,0,0,0,0,0,0,0,0,0],"sum_hessian":[2.4E2,1.52E2,8.8E1,4.2E1,1.1E2,6.2E1,2.6E1,4E1,2E0,5.1E1,5.9E1,5E1,1.2E1,1.8E1,8E0],"tree_param":{"num_deleted":"0","num_feature":"12","num_nodes":"15","size_leaf_vector":"1"}},{"base_weights":[3.7441016E-4,1.4303149E0,-2.457842E0,3.231366E0,7.1972483E-1,-1.3474671E0,-4.9576864E0,2.764157E-2,8.5394315E-2,1.3688609E-2,1.4514471E-3,-9.4261095E-3,-2.0591255E-2,-5.186946E-2,-2.3427065E-2],"categories":[],"categories_nodes":[],"categories_segments":[],"categories_sizes":[],"default_left":[0,0,0,0,0,0,0,0,0,0,0,0,0,0,0],"id":14,"left_children":[1,3,5,7,9,11,13,-1,-1,-1,-1,-1,-1,-1,-1],"loss_changes":[8.5065546E2,1.9348505E2,2.4036273E2,8.303464E1,4.120218E1,1.6210564E1,4.0353394E0,0E0,0E0,0E0,0E0,0E0,0E0,0E0,0E0],"parents":[2147483647,0,0,1,1,2,2,3,3,4,4,5,5,6,6],"right_children":[2,4,6,8,10,12,14,-1,-1,-1,-1,-1,-1,-1,-1],"split_conditions":[5E-1,-5E-1,1.5E0,5E0,0E0,1E0,9.7E0,2.764157E-2,8.5394315E-2,1.3688609E-2,1.4514471E-3,-9.4261095E-3,-2.0591255E-2,-5.186946E-2,-2.3427065E-2],"split_indices":[2,2,2,6,2,2,11,0,0,0,0,0,0,0,0],"split_type":[0,0,0,0,0,0,0,0,0,0,0,0,0,0,0],"sum_hessian":[2.4E2,1.52E2,8.8E1,4.2E1,1.1E2,6.2E1,2.6E1,4E1,2E0,5.1E1,5.9E1,4.1E1,2.1E1,2.3E1,3E0],"tree_param":{"num_deleted":"0","num_feature":"12","num_nodes":"15","size_leaf_vector":"1"}},{"base_weights":[4.6626365E-4,1.4168508E0,-2.4344473E0,3.2016811E0,7.126656E-1,-1.3344687E0,-4.910899E0,2.73719E-2,8.482501E-2,1.355437E-2,1.4371928E-3,-9.297653E-3,-2.0464266E-2,-5.4164562E-2,-3.2979567E-2],"categories":[],"categories_nodes":[],"categories_segments":[],"categories_sizes":[],"default_left":[0,0,0,0,0,0,0,0,0,0,0,0,0,0,0],"id":15,"left_children":[1,3,5,7,9,11,13,-1,-1,-1,-1,-1,-1,-1,-1],"loss_changes":[8.3460376E2,1.9001651E2,2.3588641E2,8.2256256E1,4.039817E1,1.6249603E1,4.1535034E0,0E0,0E0,0E0,0E0,0E0,0E0,0E0,0E0],"parents":[2147483647,0,0,1,1,2,2,3,3,4,4,5,5,6,6],"right_children":[2,4,6,8,10,12,14,-1,-1,-1,-1,-1,-1,-1,-1],"split_conditions":[5E-1,-5E-1,1.5E0,5E0,0E0,8.333333E-1,5E-1,2.73719E-2,8.482501E-2,1.355437E-2,1.4371928E-3,-9.297653E-3,-2.0464266E-2,-5.4164562E-2,-3.2979567E-2],"split_indices":[2,2,2,6,2,9,6,0,0,0,0,0,0,0,0],"split_type":[0,0,0,0,0,0,0,0,0,0,0,0,0,0,0],"sum_hessian":[2.4E2,1.52E2,8.8E1,4.2E1,1.1E2,6.2E1,2.6E1,4E1,2E0,5.1E1,5.9E1,4.1E1,2.1E1,1.8E1,8E0],"tree_param":{"num_deleted":"0","num_feature":"12","num_nodes":"15","size_leaf_vector":"1"}},{"base_weights":[5.043473E-4,8.1042653E-1,-2.0301774E0,6.7208153E-1,8.425952E-2,-1.4085349E0,-5.1798802E-2,1.17091E-2,-3.0070305E-4,-7.4498886E-3,-2.8785571E-2],"categories":[],"categories_nodes":[],"categories_segments":[],"categories_sizes":[],"default_left":[0,0,0,0,0,0,0,0,0,0,0],"id":16,"left_children":[1,3,5,7,-1,9,-1,-1,-1,-1,-1],"loss_changes":[3.9801663E2,1.766047E2,1.2780521E2,5.9928528E1,0E0,5.5405716E1,0E0,0E0,0E0,0E0,0E0],"parents":[2147483647,0,0,1,1,2,2,3,3,5,5],"right_children":[2,4,6,8,-1,10,-1,-1,-1,-1,-1],"split_conditions":[6.666667E-1,1.55E1,3.3333333E0,1.25E-1,8.425952E-2,2.3E0,-5.1798802E-2,1.17091E-2,-3.0070305E-4,-7.4498886E-3,-2.8785571E-2],"split_indices":[9,6,9,10,0,11,0,0,0,0,0],"split_type":[0,0,0,0,0,0,0,0,0,0,0],"sum_hessian":[2.4E2,1.72E2,6.8E1,1.7E2,2E0,5.8E1,1E1,9.9E1,7.1E1,4.1E1,1.7E1],"tree_param":{"num_deleted":"0","num_feature":"12","num_nodes":"11","size_leaf_vector":"1"}},{"base_weights":[5.319999E-4,1.3986166E0,-2.4029226E0,3.1607568E0,7.033855E-1,-1.318716E0,-4.8437414E0,2.7025172E-2,8.369778E-2,1.3370732E-2,1.4246629E-3,-9.191068E-3,-2.0216646E-2,-5.068602E-2,-2.2836408E-2],"categories":[],"categories_nodes":[],"categories_segments":[],"categories_sizes":[],"default_left":[0,0,0,0,0,0,0,0,0,0,0,0,0,0,0],"id":17,"left_children":[1,3,5,7,9,11,13,-1,-1,-1,-1,-1,-1,-1,-1],"loss_changes":[8.1317694E2,1.8521628E2,2.2913782E2,8.002069E1,3.92642E1,1.5838875E1,3.9680786E0,0E0,0E0,0E0,0E0,0E0,0E0,0E0,0E0],"parents":[2147483647,0,0,1,1,2,2,3,3,4,4,5,5,6,6],"right_children":[2,4,6,8,10,12,14,-1,-1,-1,-1,-1,-1,-1,-1],"split_conditions":[5E-1,-5E-1,1.5E0,5E0,0E0,1E0,9.7E0,2.7025172E-2,8.369778E-2,1.3370732E-2,1.4246629E-3,-9.191068E-3,-2.0216646E-2,-5.068602E-2,-2.2836408E-2],"split_indices":[2,2,2,6,2,2,11,0,0,0,0,0,0,0,0],"split_type":[0,0,0,0,0,0,0,0,0,0,0,0,0,0,0],"sum_hessian":[2.4E2,1.52E2,8.8E1,4.2E1,1.1E2,6.2E1,2.6E1,4E1,2E0,5.1E1,5.9E1,4.1E1,2.1E1,2.3E1,3E0],"tree_param":{"num_deleted":"0","num_feature":"12","num_nodes":"15","size_leaf_vector":"1"}},{"base_weights":[6.2102004E-4,1.385452E0,-2.3800504E0,3.131726E0,6.9648594E-1,-1.3059962E0,-4.798027E0,2.6761532E-2,8.31398E-2,1.3239598E-2,1.4106712E-3,-1.023119E-2,-2.3152836E-2,-5.293678E-2,-3.218538E-2],"categories":[],"categories_nodes":[],"categories_segments":[],"categories_sizes":[],"default_left":[0,0,0,0,0,0,0,0,0,0,0,0,0,0,0],"id":18,"left_children":[1,3,5,7,9,11,13,-1,-1,-1,-1,-1,-1,-1,-1],"loss_changes":[7.978329E2,1.8189667E2,2.2487018E2,7.926901E1,3.8497932E1,1.5617958E1,4.0997925E0,0E0,0E0,0E0,0E0,0E0,0E0,0E0,0E0],"parents":[2147483647,0,0,1,1,2,2,3,3,4,4,5,5,6,6],"right_children":[2,4,6,8,10,12,14,-1,-1,-1,-1,-1,-1,-1,-1],"split_conditions":[5E-1,-5E-1,1.5E0,5E0,0E0,1.1666666E0,5E-1,2.6761532E-2,8.31398E-2,1.3239598E-2,1.4106712E-3,-1.023119E-2,-2.3152836E-2,-5.293678E-2,-3.218538E-2],"split_indices":[2,2,2,6,2,9,6,0,0,0,0,0,0,0,0],"split_type":[0,0,0,0,0,0,0,0,0,0,0,0,0,0,0],"sum_hessian":[2.4E2,1.52E2,8.8E1,4.2E1,1.1E2,6.2E1,2.6E1,4E1,2E0,5.1E1,5.9E1,5E1,1.2E1,1.8E1,8E0],"tree_param":{"num_deleted":"0","num_feature":"12","num_nodes":"15","size_leaf_vector":"1"}},{"base_weights":[6.395237E-4,1.3724113E0,-2.3575819E0,3.1029658E0,6.896521E-1,-1.2934666E0,-4.7532E0,2.6500456E-2,8.258552E-2,1.3109736E-2,1.396792E-3,-8.979952E-3,-1.9896634E-2,-5.243528E-2,-3.1899296E-2],"categories":[],"categories_nodes":[],"categories_segments":[],"categories_sizes":[],"default_left":[0,0,0,0,0,0,0,0,0,0,0,0,0,0,0],"id":19,"left_children":[1,3,5,7,9,11,13,-1,-1,-1,-1,-1,-1,-1,-1],"loss_changes":[7.8285645E2,1.7863748E2,2.2073196E2,7.852243E1,3.7746696E1,1.555883E1,3.9694824E0,0E0,0E0,0E0,0E0,0E0,0E0,0E0,0E0],"parents":[2147483647,0,0,1,1,2,2,3,3,4,4,5,5,6,6],"right_children":[2,4,6,8,10,12,14,-1,-1,-1,-1,-1,-1,-1,-1],"split_conditions":[5E-1,-5E-1,1.5E0,5E0,0E0,1E0,5E-1,2.6500456E-2,8.258552E-2,1.3109736E-2,1.396792E-3,-8.979952E-3,-1.9896634E-2,-5.243528E-2,-3.1899296E-2],"split_indices":[2,2,2,6,2,2,6,0,0,0,0,0,0,0,0],"split_type":[0,0,0,0,0,0,0,0,0,0,0,0,0,0,0],"sum_hessian":[2.4E2,1.52E2,8.8E1,4.2E1,1.1E2,6.2E1,2.6E1,4E1,2E0,5.1E1,5.9E1,4.1E1,2.1E1,1.8E1,8E0],"tree_param":{"num_deleted":"0","num_feature":"12","num_nodes":"15","size_leaf_vector":"1"}},{"base_weights":[6.7616696E-4,1.3594947E0,-2.3352778E0,3.074473E0,6.8288594E-1,-1.28099E0,-4.708791E0,2.6241912E-2,8.203496E-2,1.2981147E-2,1.383063E-3,-1.0008599E-2,-2.281425E-2,-4.929368E-2,-2.2081299E-2],"categories":[],"categories_nodes":[],"categories_segments":[],"categories_sizes":[],"default_left":[0,0,0,0,0,0,0,0,0,0,0,0,0,0,0],"id":20,"left_children":[1,3,5,7,9,11,13,-1,-1,-1,-1,-1,-1,-1,-1],"loss_changes":[7.6814185E2,1.7543698E2,2.1667862E2,7.778116E1,3.701002E1,1.537249E1,4.0082397E0,0E0,0E0,0E0,0E0,0E0,0E0,0E0,0E0],"parents":[2147483647,0,0,1,1,2,2,3,3,4,4,5,5,6,6],"right_children":[2,4,6,8,10,12,14,-1,-1,-1,-1,-1,-1,-1,-1],"split_conditions":[5E-1,-5E-1,1.5E0,5E0,0E0,1.1666666E0,9.7E0,2.6241912E-2,8.203496E-2,1.2981147E-2,1.383063E-3,-1.0008599E-2,-2.281425E-2,-4.929368E-2,-2.2081299E-2],"split_indices":[2,2,2,6,2,9,11,0,0,0,0,0,0,0,0],"split_type":[0,0,0,0,0,0,0,0,0,0,0,0,0,0,0],"sum_hessian":[2.4E2,1.52E2,8.8E1,4.2E1,1.1E2,6.2E1,2.6E1,4E1,2E0,5.1E1,5.9E1,5E1,1.2E1,2.3E1,3E0],"tree_param":{"num_deleted":"0","num_feature":"12","num_nodes":"15","size_leaf_vector":"1"}},{"base_weights":[7.4584456E-4,1.3467007E0,-2.313095E0,3.0462468E0,6.761855E-1,-1.2687E0,-4.6643467E0,2.59859E-2,8.1488065E-2,1.2853829E-2,1.3694463E-3,-8.773235E-3,-1.958205E-2,-5.1485844E-2,-3.1238064E-2],"categories":[],"categories_nodes":[],"categories_segments":[],"categories_sizes":[],"default_left":[0,0,0,0,0,0,0,0,0,0,0,0,0,0,0],"id":21,"left_children":[1,3,5,7,9,11,13,-1,-1,-1,-1,-1,-1,-1,-1],"loss_changes":[7.536675E2,1.7229462E2,2.1263394E2,7.704495E1,3.628793E1,1.5282959E1,4.0584717E0,0E0,0E0,0E0,0E0,0E0,0E0,0E0,0E0],"parents":[2147483647,0,0,1,1,2,2,3,3,4,4,5,5,6,6],"right_children":[2,4,6,8,10,12,14,-1,-1,-1,-1,-1,-1,-1,-1],"split_conditions":[5E-1,-5E-1,1.5E0,5E0,0E0,1E0,5E-1,2.59859E-2,8.1488065E-2,1.2853829E-2,1.3694463E-3,-8.773235E-3,-1.958205E-2,-5.1485844E-2,-3.1238064E-2],"split_indices":[2,2,2,6,2,2,6,0,0,0,0,0,0,0,0],"split_type":[0,0,0,0,0,0,0,0,0,0,0,0,0,0,0],"sum_hessian":[2.4E2,1.52E2,8.8E1,4.2E1,1.1E2,6.2E1,2.6E1,4E1,2E0,5.1E1,5.9E1,4.1E1,2.1E1,1.8E1,8E0],"tree_param":{"num_deleted":"0","num_feature":"12","num_nodes":"15","size_leaf_vector":"1"}},{"base_weights":[7.8218704E-4,1.3340285E0,-2.2912118E0,3.0182838E0,6.69551E-1,-1.256463E0,-4.620766E0,2.5732381E-2,8.094479E-2,1.2727746E-2,1.3559798E-3,-9.790541E-3,-2.2481088E-2,-4.8378486E-2,-2.1630792E-2],"categories":[],"categories_nodes":[],"categories_segments":[],"categories_sizes":[],"default_left":[0,0,0,0,0,0,0,0,0,0,0,0,0,0,0],"id":22,"left_children":[1,3,5,7,9,11,13,-1,-1,-1,-1,-1,-1,-1,-1],"loss_changes":[7.395026E2,1.6920901E2,2.0872897E2,7.6313995E1,3.5579742E1,1.51297455E1,3.9404297E0,0E0,0E0,0E0,0E0,0E0,0E0,0E0,0E0],"parents":[2147483647,0,0,1,1,2,2,3,3,4,4,5,5,6,6],"right_children":[2,4,6,8,10,12,14,-1,-1,-1,-1,-1,-1,-1,-1],"split_conditions":[5E-1,-5E-1,1.5E0,5E0,0E0,1.1666666E0,9.7E0,2.5732381E-2,8.094479E-2,1.2727746E-2,1.3559798E-3,-9.790541E-3,-2.2481088E-2,-4.8378486E-2,-2.1630792E-2],"split_indices":[2,2,2,6,2,9,11,0,0,0,0,0,0,0,0],"split_type":[0,0,0,0,0,0,0,0,0,0,0,0,0,0,0],"sum_hessian":[2.4E2,1.52E2,8.8E1,4.2E1,1.1E2,6.2E1,2.6E1,4E1,2E0,5.1E1,5.9E1,5E1,1.2E1,2.3E1,3E0],"tree_param":{"num_deleted":"0","num_feature":"12","num_nodes":"15","size_leaf_vector":"1"}},{"base_weights":[8.510732E-4,1.3214772E0,-2.2694483E0,2.9905806E0,6.629824E-1,-1.2444094E0,-4.577152E0,2.5481319E-2,8.040517E-2,1.2602897E-2,1.3426634E-3,-8.570847E-3,-1.9272834E-2,-5.0553832E-2,-3.0589802E-2],"categories":[],"categories_nodes":[],"categories_segments":[],"categories_sizes":[],"default_left":[0,0,0,0,0,0,0,0,0,0,0,0,0,0,0],"id":23,"left_children":[1,3,5,7,9,11,13,-1,-1,-1,-1,-1,-1,-1,-1],"loss_changes":[7.255693E2,1.6617896E2,2.0483237E2,7.558823E1,3.4885254E1,1.5011276E1,4.138733E0,0E0,0E0,0E0,0E0,0E0,0E0,0E0,0E0],"parents":[2147483647,0,0,1,1,2,2,3,3,4,4,5,5,6,6],"right_children":[2,4,6,8,10,12,14,-1,-1,-1,-1,-1,-1,-1,-1],"split_conditions":[5E-1,-5E-1,1.5E0,5E0,0E0,1E0,5E-1,2.5481319E-2,8.040517E-2,1.2602897E-2,1.3426634E-3,-8.570847E-3,-1.9272834E-2,-5.0553832E-2,-3.0589802E-2],"split_indices":[2,2,2,6,2,2,6,0,0,0,0,0,0,0,0],"split_type":[0,0,0,0,0,0,0,0,0,0,0,0,0,0,0],"sum_hessian":[2.4E2,1.52E2,8.8E1,4.2E1,1.1E2,6.2E1,2.6E1,4E1,2E0,5.1E1,5.9E1,4.1E1,2.1E1,1.8E1,8E0],"tree_param":{"num_deleted":"0","num_feature":"12","num_nodes":"15","size_leaf_vector":"1"}},{"base_weights":[8.871466E-4,1.3090451E0,-2.2479784E0,2.9631362E0,6.564778E-1,-1.2324072E0,-4.5343866E0,4.5549296E-2,2.4078107E-2,1.2479284E-2,1.3294595E-3,-9.5769325E-3,-2.2153303E-2,-4.748031E-2,-2.118924E-2],"categories":[],"categories_nodes":[],"categories_segments":[],"categories_sizes":[],"default_left":[0,0,0,0,0,0,0,0,0,0,0,0,0,0,0],"id":24,"left_children":[1,3,5,7,9,11,13,-1,-1,-1,-1,-1,-1,-1,-1],"loss_changes":[7.119338E2,1.6320389E2,2.0107068E2,2.704303E1,3.4204494E1,1.4889816E1,3.8726196E0,0E0,0E0,0E0,0E0,0E0,0E0,0E0,0E0],"parents":[2147483647,0,0,1,1,2,2,3,3,4,4,5,5,6,6],"right_children":[2,4,6,8,10,12,14,-1,-1,-1,-1,-1,-1,-1,-1],"split_conditions":[5E-1,-5E-1,1.5E0,-1.6666667E-1,0E0,1.1666666E0,9.7E0,4.5549296E-2,2.4078107E-2,1.2479284E-2,1.3294595E-3,-9.5769325E-3,-2.2153303E-2,-4.748031E-2,-2.118924E-2],"split_indices":[2,2,2,9,2,9,11,0,0,0,0,0,0,0,0],"split_type":[0,0,0,0,0,0,0,0,0,0,0,0,0,0,0],"sum_hessian":[2.4E2,1.52E2,8.8E1,4.2E1,1.1E2,6.2E1,2.6E1,9E0,3.3E1,5.1E1,5.9E1,5E1,1.2E1,2.3E1,3E0],"tree_param":{"num_deleted":"0","num_feature":"12","num_nodes":"15","size_leaf_vector":"1"}},{"base_weights":[8.0819346E-4,1.2964997E0,-2.2266257E0,2.9351244E0,6.5003705E-1,-1.2205856E0,-4.491585E0,4.513937E-2,2.3844404E-2,1.2356904E-2,1.3163681E-3,-8.37271E-3,-1.8968867E-2,-4.702528E-2,-2.103031E-2],"categories":[],"categories_nodes":[],"categories_segments":[],"categories_sizes":[],"default_left":[0,0,0,0,0,0,0,0,0,0,0,0,0,0,0],"id":25,"left_children":[1,3,5,7,9,11,13,-1,-1,-1,-1,-1,-1,-1,-1],"loss_changes":[6.98429E2,1.6016644E2,1.9731659E2,2.6622131E1,3.353725E1,1.474366E1,3.7143555E0,0E0,0E0,0E0,0E0,0E0,0E0,0E0,0E0],"parents":[2147483647,0,0,1,1,2,2,3,3,4,4,5,5,6,6],"right_children":[2,4,6,8,10,12,14,-1,-1,-1,-1,-1,-1,-1,-1],"split_conditions":[5E-1,-5E-1,1.5E0,-1.6666667E-1,0E0,1E0,9.7E0,4.513937E-2,2.3844404E-2,1.2356904E-2,1.3163681E-3,-8.37271E-3,-1.8968867E-2,-4.702528E-2,-2.103031E-2],"split_indices":[2,2,2,9,2,2,11,0,0,0,0,0,0,0,0],"split_type":[0,0,0,0,0,0,0,0,0,0,0,0,0,0,0],"sum_hessian":[2.4E2,1.52E2,8.8E1,4.2E1,1.1E2,6.2E1,2.6E1,9E0,3.3E1,5.1E1,5.9E1,4.1E1,2.1E1,2.3E1,3E0],"tree_param":{"num_deleted":"0","num_feature":"12","num_nodes":"15","size_leaf_vector":"1"}},{"base_weights":[7.474749E-4,-9.8741524E-2,7.926455E-2,4.4076613E-1,-1.1969945E0,1.739965E-2,2.3345794E-3,-6.348095E-3,-2.458885E-2],"categories":[],"categories_nodes":[],"categories_segments":[],"categories_sizes":[],"default_left":[0,0,0,0,0,0,0,0,0],"id":26,"left_children":[1,3,-1,5,7,-1,-1,-1,-1],"loss_changes":[1.9081618E2,1.4213889E2,0E0,4.295665E1,5.448294E1,0E0,0E0,0E0,0E0],"parents":[2147483647,0,0,1,1,3,3,4,4],"right_children":[2,4,-1,6,8,-1,-1,-1,-1],"split_conditions":[1.55E1,5E-1,7.926455E-2,-3.75E-1,6.666667E-1,1.739965E-2,2.3345794E-3,-6.348095E-3,-2.458885E-2],"split_indices":[6,10,0,10,11,0,0,0,0],"split_type":[0,0,0,0,0,0,0,0,0],"sum_hessian":[2.4E2,2.38E2,2E0,1.6E2,7.8E1,2.1E1,1.39E2,5.5E1,2.3E1],"tree_param":{"num_deleted":"0","num_feature":"12","num_nodes":"9","size_leaf_vector":"1"}},{"base_weights":[1.0224339E-3,1.2813216E0,-2.1999528E0,2.8987687E0,6.4319956E-1,-1.2053486E0,-4.439216E0,2.464054E-2,7.873611E-2,1.2214863E-2,1.3129761E-3,-9.335066E-3,-2.1790864E-2,-4.9107194E-2,-2.950574E-2],"categories":[],"categories_nodes":[],"categories_segments":[],"categories_sizes":[],"default_left":[0,0,0,0,0,0,0,0,0,0,0,0,0,0,0],"id":27,"left_children":[1,3,5,7,9,11,13,-1,-1,-1,-1,-1,-1,-1,-1],"loss_changes":[6.819344E2,1.5605121E2,1.9286829E2,7.359235E1,3.2698524E1,1.464209E1,4.461853E0,0E0,0E0,0E0,0E0,0E0,0E0,0E0,0E0],"parents":[2147483647,0,0,1,1,2,2,3,3,4,4,5,5,6,6],"right_children":[2,4,6,8,10,12,14,-1,-1,-1,-1,-1,-1,-1,-1],"split_conditions":[5E-1,-5E-1,1.5E0,5E0,0E0,1.1666666E0,5E-1,2.464054E-2,7.873611E-2,1.2214863E-2,1.3129761E-3,-9.335066E-3,-2.1790864E-2,-4.9107194E-2,-2.950574E-2],"split_indices":[2,2,2,6,2,9,6,0,0,0,0,0,0,0,0],"split_type":[0,0,0,0,0,0,0,0,0,0,0,0,0,0,0],"sum_hessian":[2.4E2,1.52E2,8.8E1,4.2E1,1.1E2,6.2E1,2.6E1,4E1,2E0,5.1E1,5.9E1,5E1,1.2E1,1.8E1,8E0],"tree_param":{"num_deleted":"0","num_feature":"12","num_nodes":"15","size_leaf_vector":"1"}},{"base_weights":[1.0422196E-3,1.2692732E0,-2.1791868E0,2.8721864E0,6.368899E-1,-1.1937898E0,-4.3977356E0,2.440016E-2,7.821121E-2,1.2095066E-2,1.3000723E-3,-8.155566E-3,-1.8616084E-2,-4.8641972E-2,-2.924346E-2],"categories":[],"categories_nodes":[],"categories_segments":[],"categories_sizes":[],"default_left":[0,0,0,0,0,0,0,0,0,0,0,0,0,0,0],"id":28,"left_children":[1,3,5,7,9,11,13,-1,-1,-1,-1,-1,-1,-1,-1],"loss_changes":[6.6913916E2,1.5326006E2,1.893175E2,7.2884E1,3.2060448E1,1.4394997E1,4.33197E0,0E0,0E0,0E0,0E0,0E0,0E0,0E0,0E0],"parents":[2147483647,0,0,1,1,2,2,3,3,4,4,5,5,6,6],"right_children":[2,4,6,8,10,12,14,-1,-1,-1,-1,-1,-1,-1,-1],"split_conditions":[5E-1,-5E-1,1.5E0,5E0,0E0,1E0,5E-1,2.440016E-2,7.821121E-2,1.2095066E-2,1.3000723E-3,-8.155566E-3,-1.8616084E-2,-4.8641972E-2,-2.924346E-2],"split_indices":[2,2,2,6,2,2,6,0,0,0,0,0,0,0,0],"split_type":[0,0,0,0,0,0,0,0,0,0,0,0,0,0,0],"sum_hessian":[2.4E2,1.52E2,8.8E1,4.2E1,1.1E2,6.2E1,2.6E1,4E1,2E0,5.1E1,5.9E1,4.1E1,2.1E1,1.8E1,8E0],"tree_param":{"num_deleted":"0","num_feature":"12","num_nodes":"15","size_leaf_vector":"1"}},{"base_weights":[1.0785938E-3,1.2573383E0,-2.158571E0,2.8458521E0,6.306407E-1,-1.1822768E0,-4.3566437E0,2.4162123E-2,7.76898E-2,1.1976427E-2,1.287281E-3,-8.042273E-3,-1.8502677E-2,-4.818116E-2,-2.8983518E-2],"categories":[],"categories_nodes":[],"categories_segments":[],"categories_sizes":[],"default_left":[0,0,0,0,0,0,0,0,0,0,0,0,0,0,0],"id":29,"left_children":[1,3,5,7,9,11,13,-1,-1,-1,-1,-1,-1,-1,-1],"loss_changes":[6.5656647E2,1.5051953E2,1.8584012E2,7.218088E1,3.1434822E1,1.4421585E1,4.2053833E0,0E0,0E0,0E0,0E0,0E0,0E0,0E0,0E0],"parents":[2147483647,0,0,1,1,2,2,3,3,4,4,5,5,6,6],"right_children":[2,4,6,8,10,12,14,-1,-1,-1,-1,-1,-1,-1,-1],"split_conditions":[5E-1,-5E-1,1.5E0,5E0,0E0,8.333333E-1,5E-1,2.4162123E-2,7.76898E-2,1.1976427E-2,1.287281E-3,-8.042273E-3,-1.8502677E-2,-4.818116E-2,-2.8983518E-2],"split_indices":[2,2,2,6,2,9,6,0,0,0,0,0,0,0,0],"split_type":[0,0,0,0,0,0,0,0,0,0,0,0,0,0,0],"sum_hessian":[2.4E2,1.52E2,8.8E1,4.2E1,1.1E2,6.2E1,2.6E1,4E1,2E0,5.1E1,5.9E1,4.1E1,2.1E1,1.8E1,8E0],"tree_param":{"num_deleted":"0","num_feature":"12","num_nodes":"15","size_leaf_vector":"1"}},{"base_weights":[1.1147938E-3,1.2455174E0,-2.1381516E0,2.8197622E0,6.244539E-1,-1.1708765E0,-4.315936E0,4.354644E-2,2.2853922E-2,1.185895E-2,1.2746397E-3,-9.033481E-3,-2.1303434E-2,-4.5228947E-2,-1.9951982E-2],"categories":[],"categories_nodes":[],"categories_segments":[],"categories_sizes":[],"default_left":[0,0,0,0,0,0,0,0,0,0,0,0,0,0,0],"id":30,"left_children":[1,3,5,7,9,11,13,-1,-1,-1,-1,-1,-1,-1,-1],"loss_changes":[6.4423126E2,1.4782819E2,1.8242654E2,2.5316284E1,3.082124E1,1.4246689E1,3.9440002E0,0E0,0E0,0E0,0E0,0E0,0E0,0E0,0E0],"parents":[2147483647,0,0,1,1,2,2,3,3,4,4,5,5,6,6],"right_children":[2,4,6,8,10,12,14,-1,-1,-1,-1,-1,-1,-1,-1],"split_conditions":[5E-1,-5E-1,1.5E0,-1.6666667E-1,0E0,1.1666666E0,9.7E0,4.354644E-2,2.2853922E-2,1.185895E-2,1.2746397E-3,-9.033481E-3,-2.1303434E-2,-4.5228947E-2,-1.9951982E-2],"split_indices":[2,2,2,9,2,9,11,0,0,0,0,0,0,0,0],"split_type":[0,0,0,0,0,0,0,0,0,0,0,0,0,0,0],"sum_hessian":[2.4E2,1.52E2,8.8E1,4.2E1,1.1E2,6.2E1,2.6E1,9E0,3.3E1,5.1E1,5.9E1,5E1,1.2E1,2.3E1,3E0],"tree_param":{"num_deleted":"0","num_feature":"12","num_nodes":"15","size_leaf_vector":"1"}},{"base_weights":[1.0371545E-3,1.233582E0,-2.1178436E0,2.7931092E0,6.183275E-1,-1.1596491E0,-4.2751923E0,4.3154534E-2,2.2632105E-2,1.1742632E-2,1.262111E-3,-7.85893E-3,-1.8204723E-2,-4.479552E-2,-1.980235E-2],"categories":[],"categories_nodes":[],"categories_segments":[],"categories_sizes":[],"default_left":[0,0,0,0,0,0,0,0,0,0,0,0,0,0,0],"id":31,"left_children":[1,3,5,7,9,11,13,-1,-1,-1,-1,-1,-1,-1,-1],"loss_changes":[6.3201196E2,1.4507735E2,1.790195E2,2.4920807E1,3.021975E1,1.4129456E1,3.792389E0,0E0,0E0,0E0,0E0,0E0,0E0,0E0,0E0],"parents":[2147483647,0,0,1,1,2,2,3,3,4,4,5,5,6,6],"right_children":[2,4,6,8,10,12,14,-1,-1,-1,-1,-1,-1,-1,-1],"split_conditions":[5E-1,-5E-1,1.5E0,-1.6666667E-1,0E0,1E0,9.7E0,4.3154534E-2,2.2632105E-2,1.1742632E-2,1.262111E-3,-7.85893E-3,-1.8204723E-2,-4.479552E-2,-1.980235E-2],"split_indices":[2,2,2,9,2,2,11,0,0,0,0,0,0,0,0],"split_type":[0,0,0,0,0,0,0,0,0,0,0,0,0,0,0],"sum_hessian":[2.4E2,1.52E2,8.8E1,4.2E1,1.1E2,6.2E1,2.6E1,9E0,3.3E1,5.1E1,5.9E1,4.1E1,2.1E1,2.3E1,3E0],"tree_param":{"num_deleted":"0","num_feature":"12","num_nodes":"15","size_leaf_vector":"1"}},{"base_weights":[9.773381E-4,1.2217611E0,-2.0976844E0,2.7667074E0,6.1226153E-1,-1.1484671E0,-4.234833E0,2.3412257E-2,7.659385E-2,1.1627474E-2,1.2496948E-3,-8.835422E-3,-2.0994443E-2,-4.689833E-2,-2.8037388E-2],"categories":[],"categories_nodes":[],"categories_segments":[],"categories_sizes":[],"default_left":[0,0,0,0,0,0,0,0,0,0,0,0,0,0,0],"id":32,"left_children":[1,3,5,7,9,11,13,-1,-1,-1,-1,-1,-1,-1,-1],"loss_changes":[6.200078E2,1.423776E2,1.7568338E2,7.158267E1,2.9630146E1,1.401712E1,4.4319763E0,0E0,0E0,0E0,0E0,0E0,0E0,0E0,0E0],"parents":[2147483647,0,0,1,1,2,2,3,3,4,4,5,5,6,6],"right_children":[2,4,6,8,10,12,14,-1,-1,-1,-1,-1,-1,-1,-1],"split_conditions":[5E-1,-5E-1,1.5E0,5E0,0E0,1.1666666E0,5E-1,2.3412257E-2,7.659385E-2,1.1627474E-2,1.2496948E-3,-8.835422E-3,-2.0994443E-2,-4.689833E-2,-2.8037388E-2],"split_indices":[2,2,2,6,2,9,6,0,0,0,0,0,0,0,0],"split_type":[0,0,0,0,0,0,0,0,0,0,0,0,0,0,0],"sum_hessian":[2.4E2,1.52E2,8.8E1,4.2E1,1.1E2,6.2E1,2.6E1,4E1,2E0,5.1E1,5.9E1,5E1,1.2E1,1.8E1,8E0],"tree_param":{"num_deleted":"0","num_feature":"12","num_nodes":"15","size_leaf_vector":"1"}},{"base_weights":[1.0011127E-3,1.2102811E0,-2.077885E0,2.7413673E0,6.062543E-1,-1.137456E0,-4.1952596E0,2.318386E-2,7.608322E-2,1.1513438E-2,1.2373911E-3,-7.675705E-3,-1.7918987E-2,-4.645403E-2,-2.7788162E-2],"categories":[],"categories_nodes":[],"categories_segments":[],"categories_sizes":[],"default_left":[0,0,0,0,0,0,0,0,0,0,0,0,0,0,0],"id":33,"left_children":[1,3,5,7,9,11,13,-1,-1,-1,-1,-1,-1,-1,-1],"loss_changes":[6.0837805E2,1.3983505E2,1.7244849E2,7.088208E1,2.9052074E1,1.3874939E1,4.3065796E0,0E0,0E0,0E0,0E0,0E0,0E0,0E0,0E0],"parents":[2147483647,0,0,1,1,2,2,3,3,4,4,5,5,6,6],"right_children":[2,4,6,8,10,12,14,-1,-1,-1,-1,-1,-1,-1,-1],"split_conditions":[5E-1,-5E-1,1.5E0,5E0,0E0,1E0,5E-1,2.318386E-2,7.608322E-2,1.1513438E-2,1.2373911E-3,-7.675705E-3,-1.7918987E-2,-4.645403E-2,-2.7788162E-2],"split_indices":[2,2,2,6,2,2,6,0,0,0,0,0,0,0,0],"split_type":[0,0,0,0,0,0,0,0,0,0,0,0,0,0,0],"sum_hessian":[2.4E2,1.52E2,8.8E1,4.2E1,1.1E2,6.2E1,2.6E1,4E1,2E0,5.1E1,5.9E1,4.1E1,2.1E1,1.8E1,8E0],"tree_param":{"num_deleted":"0","num_feature":"12","num_nodes":"15","size_leaf_vector":"1"}},{"base_weights":[1.041713E-3,1.1989107E0,-2.058228E0,2.7162604E0,6.0030764E-1,-1.1264886E0,-4.156056E0,2.2957658E-2,7.557599E-2,1.14005245E-2,1.2252375E-3,-7.5788894E-3,-1.7789746E-2,-4.6013933E-2,-2.7541155E-2],"categories":[],"categories_nodes":[],"categories_segments":[],"categories_sizes":[],"default_left":[0,0,0,0,0,0,0,0,0,0,0,0,0,0,0],"id":34,"left_children":[1,3,5,7,9,11,13,-1,-1,-1,-1,-1,-1,-1,-1],"loss_changes":[5.969509E2,1.3733781E2,1.6928021E2,7.018707E1,2.848515E1,1.3803619E1,4.1843567E0,0E0,0E0,0E0,0E0,0E0,0E0,0E0,0E0],"parents":[2147483647,0,0,1,1,2,2,3,3,4,4,5,5,6,6],"right_children":[2,4,6,8,10,12,14,-1,-1,-1,-1,-1,-1,-1,-1],"split_conditions":[5E-1,-5E-1,1.5E0,5E0,0E0,8.333333E-1,5E-1,2.2957658E-2,7.557599E-2,1.14005245E-2,1.2252375E-3,-7.5788894E-3,-1.7789746E-2,-4.6013933E-2,-2.7541155E-2],"split_indices":[2,2,2,6,2,9,6,0,0,0,0,0,0,0,0],"split_type":[0,0,0,0,0,0,0,0,0,0,0,0,0,0,0],"sum_hessian":[2.4E2,1.52E2,8.8E1,4.2E1,1.1E2,6.2E1,2.6E1,4E1,2E0,5.1E1,5.9E1,4.1E1,2.1E1,1.8E1,8E0],"tree_param":{"num_deleted":"0","num_feature":"12","num_nodes":"15","size_leaf_vector":"1"}},{"base_weights":[1.0819811E-3,7.1291214E-1,-1.7836673E0,5.895448E-1,7.507215E-2,-1.2326908E0,-4.5767535E-2,1.007202E-2,1.2772349E-5,-6.500628E-3,-1.774229E-2],"categories":[],"categories_nodes":[],"categories_segments":[],"categories_sizes":[],"default_left":[0,0,0,0,0,0,0,0,0,0,0],"id":35,"left_children":[1,3,5,7,-1,9,-1,-1,-1,-1,-1],"loss_changes":[3.0744727E2,1.4058194E2,1.0054411E2,4.2012417E1,0E0,1.7462044E1,0E0,0E0,0E0,0E0,0E0],"parents":[2147483647,0,0,1,1,2,2,3,3,5,5],"right_children":[2,4,6,8,-1,10,-1,-1,-1,-1,-1],"split_conditions":[6.666667E-1,1.55E1,3.3333333E0,1.25E-1,7.507215E-2,6.25E-1,-4.5767535E-2,1.007202E-2,1.2772349E-5,-6.500628E-3,-1.774229E-2],"split_indices":[9,6,9,10,0,10,0,0,0,0,0],"split_type":[0,0,0,0,0,0,0,0,0,0,0],"sum_hessian":[2.4E2,1.72E2,6.8E1,1.7E2,2E0,5.8E1,1E1,9.9E1,7.1E1,2.9E1,2.9E1],"tree_param":{"num_deleted":"0","num_feature":"12","num_nodes":"11","size_leaf_vector":"1"}},{"base_weights":[1.1348804E-3,1.1836755E0,-2.0317848E0,2.6813238E0,5.928418E-1,-1.1130189E0,-4.100321E0,2.2664735E-2,7.457166E-2,1.12509215E-2,1.2167746E-3,-7.473812E-3,-1.7604625E-2,-4.5388706E-2,-2.718902E-2],"categories":[],"categories_nodes":[],"categories_segments":[],"categories_sizes":[],"default_left":[0,0,0,0,0,0,0,0,0,0,0,0,0,0,0],"id":36,"left_children":[1,3,5,7,9,11,13,-1,-1,-1,-1,-1,-1,-1,-1],"loss_changes":[5.817714E2,1.3379413E2,1.6458084E2,6.829263E1,2.7699387E1,1.3598244E1,4.0164185E0,0E0,0E0,0E0,0E0,0E0,0E0,0E0,0E0],"parents":[2147483647,0,0,1,1,2,2,3,3,4,4,5,5,6,6],"right_children":[2,4,6,8,10,12,14,-1,-1,-1,-1,-1,-1,-1,-1],"split_conditions":[5E-1,-5E-1,1.5E0,5E0,0E0,1E0,5E-1,2.2664735E-2,7.457166E-2,1.12509215E-2,1.2167746E-3,-7.473812E-3,-1.7604625E-2,-4.5388706E-2,-2.718902E-2],"split_indices":[2,2,2,6,2,2,6,0,0,0,0,0,0,0,0],"split_type":[0,0,0,0,0,0,0,0,0,0,0,0,0,0,0],"sum_hessian":[2.4E2,1.52E2,8.8E1,4.2E1,1.1E2,6.2E1,2.6E1,4E1,2E0,5.1E1,5.9E1,4.1E1,2.1E1,1.8E1,8E0],"tree_param":{"num_deleted":"0","num_feature":"12","num_nodes":"15","size_leaf_vector":"1"}},{"base_weights":[1.1737554E-3,1.1725566E0,-2.012565E0,2.656773E0,5.870263E-1,-1.1022872E0,-4.0620074E0,2.2443632E-2,7.40745E-2,1.114059E-2,1.2048086E-3,-7.400861E-3,-1.7436579E-2,-4.4958726E-2,-2.6947355E-2],"categories":[],"categories_nodes":[],"categories_segments":[],"categories_sizes":[],"default_left":[0,0,0,0,0,0,0,0,0,0,0,0,0,0,0],"id":37,"left_children":[1,3,5,7,9,11,13,-1,-1,-1,-1,-1,-1,-1,-1],"loss_changes":[5.708449E2,1.3140565E2,1.6155746E2,6.762167E1,2.7158981E1,1.3344765E1,3.9015503E0,0E0,0E0,0E0,0E0,0E0,0E0,0E0,0E0],"parents":[2147483647,0,0,1,1,2,2,3,3,4,4,5,5,6,6],"right_children":[2,4,6,8,10,12,14,-1,-1,-1,-1,-1,-1,-1,-1],"split_conditions":[5E-1,-5E-1,1.5E0,5E0,0E0,1E0,5E-1,2.2443632E-2,7.40745E-2,1.114059E-2,1.2048086E-3,-7.400861E-3,-1.7436579E-2,-4.4958726E-2,-2.6947355E-2],"split_indices":[2,2,2,6,2,2,6,0,0,0,0,0,0,0,0],"split_type":[0,0,0,0,0,0,0,0,0,0,0,0,0,0,0],"sum_hessian":[2.4E2,1.52E2,8.8E1,4.2E1,1.1E2,6.2E1,2.6E1,4E1,2E0,5.1E1,5.9E1,4.1E1,2.1E1,1.8E1,8E0],"tree_param":{"num_deleted":"0","num_feature":"12","num_nodes":"15","size_leaf_vector":"1"}},{"base_weights":[1.2128679E-3,6.9748265E-1,-1.7445245E0,5.765514E-1,7.3580675E-2,-1.2052395E0,-4.47846E-2,1.2491117E-3,8.3230175E-3,-6.7263637E-3,-2.3810225E-2],"categories":[],"categories_nodes":[],"categories_segments":[],"categories_sizes":[],"default_left":[0,0,0,0,0,0,0,0,0,0,0],"id":38,"left_children":[1,3,5,7,-1,9,-1,-1,-1,-1,-1],"loss_changes":[2.9415326E2,1.3510446E2,9.633392E1,1.9647758E1,0E0,3.5345757E1,0E0,0E0,0E0,0E0,0E0],"parents":[2147483647,0,0,1,1,2,2,3,3,5,5],"right_children":[2,4,6,8,-1,10,-1,-1,-1,-1,-1],"split_conditions":[6.666667E-1,1.55E1,3.3333333E0,-2.4011976E-1,7.3580675E-2,2.3E0,-4.47846E-2,1.2491117E-3,8.3230175E-3,-6.7263637E-3,-2.3810225E-2],"split_indices":[9,6,9,7,0,11,0,0,0,0,0],"split_type":[0,0,0,0,0,0,0,0,0,0,0],"sum_hessian":[2.4E2,1.72E2,6.8E1,1.7E2,2E0,5.8E1,1E1,6.2E1,1.08E2,4.1E1,1.7E1],"tree_param":{"num_deleted":"0","num_feature":"12","num_nodes":"11","size_leaf_vector":"1"}},{"base_weights":[1.2332711E-3,-9.0501346E-2,7.309013E-2,3.9133388E-1,-1.0713238E0,1.563435E-2,2.0435129E-3,-4.0503033E-3,-1.6197314E-2],"categories":[],"categories_nodes":[],"categories_segments":[],"categories_sizes":[],"default_left":[0,0,0,0,0,0,0,0,0],"id":39,"left_children":[1,3,-1,5,7,-1,-1,-1,-1],"loss_changes":[1.622222E2,1.1336939E2,0E0,3.4965675E1,2.8210587E1,0E0,0E0,0E0,0E0],"parents":[2147483647,0,0,1,1,3,3,4,4],"right_children":[2,4,-1,6,8,-1,-1,-1,-1],"split_conditions":[1.55E1,5E-1,7.309013E-2,-3.75E-1,1.9753087E-1,1.563435E-2,2.0435129E-3,-4.0503033E-3,-1.6197314E-2],"split_indices":[6,10,0,10,3,0,0,0,0],"split_type":[0,0,0,0,0,0,0,0,0],"sum_hessian":[2.4E2,2.38E2,2E0,1.6E2,7.8E1,2.1E1,1.39E2,3.6E1,4.2E1],"tree_param":{"num_deleted":"0","num_feature":"12","num_nodes":"9","size_leaf_vector":"1"}},{"base_weights":[1.5131527E-3,1.1556141E0,-1.9825202E0,2.6171784E0,5.790117E-1,-1.0872283E0,-3.9981081E0,2.2136051E-2,7.260287E-2,1.0972813E-2,1.2019443E-3,-7.302268E-3,-1.7193573E-2,-4.424717E-2,-2.6532553E-2],"categories":[],"categories_nodes":[],"categories_segments":[],"categories_sizes":[],"default_left":[0,0,0,0,0,0,0,0,0,0,0,0,0,0,0],"id":40,"left_children":[1,3,5,7,9,11,13,-1,-1,-1,-1,-1,-1,-1,-1],"loss_changes":[5.5412683E2,1.2742412E2,1.5625714E2,6.450348E1,2.6262917E1,1.2961746E1,3.750702E0,0E0,0E0,0E0,0E0,0E0,0E0,0E0,0E0],"parents":[2147483647,0,0,1,1,2,2,3,3,4,4,5,5,6,6],"right_children":[2,4,6,8,10,12,14,-1,-1,-1,-1,-1,-1,-1,-1],"split_conditions":[5E-1,-5E-1,1.5E0,5E0,0E0,1E0,5E-1,2.2136051E-2,7.260287E-2,1.0972813E-2,1.2019443E-3,-7.302268E-3,-1.7193573E-2,-4.424717E-2,-2.6532553E-2],"split_indices":[2,2,2,6,2,2,6,0,0,0,0,0,0,0,0],"split_type":[0,0,0,0,0,0,0,0,0,0,0,0,0,0,0],"sum_hessian":[2.4E2,1.52E2,8.8E1,4.2E1,1.1E2,6.2E1,2.6E1,4E1,2E0,5.1E1,5.9E1,4.1E1,2.1E1,1.8E1,8E0],"tree_param":{"num_deleted":"0","num_feature":"12","num_nodes":"15","size_leaf_vector":"1"}},{"base_weights":[1.5463611E-3,6.8480843E-1,-1.7115824E0,5.662936E-1,7.2118856E-2,-1.1806805E0,-4.403549E-2,1.2371698E-3,8.168994E-3,-6.607178E-3,-2.3283333E-2],"categories":[],"categories_nodes":[],"categories_segments":[],"categories_sizes":[],"default_left":[0,0,0,0,0,0,0,0,0,0,0],"id":41,"left_children":[1,3,5,7,-1,9,-1,-1,-1,-1,-1],"loss_changes":[2.8326645E2,1.2974109E2,9.3413574E1,1.8864933E1,0E0,3.366909E1,0E0,0E0,0E0,0E0,0E0],"parents":[2147483647,0,0,1,1,2,2,3,3,5,5],"right_children":[2,4,6,8,-1,10,-1,-1,-1,-1,-1],"split_conditions":[6.666667E-1,1.55E1,3.3333333E0,-2.4011976E-1,7.2118856E-2,2.3E0,-4.403549E-2,1.2371698E-3,8.168994E-3,-6.607178E-3,-2.3283333E-2],"split_indices":[9,6,9,7,0,11,0,0,0,0,0],"split_type":[0,0,0,0,0,0,0,0,0,0,0],"sum_hessian":[2.4E2,1.72E2,6.8E1,1.7E2,2E0,5.8E1,1E1,6.2E1,1.08E2,4.1E1,1.7E1],"tree_param":{"num_deleted":"0","num_feature":"12","num_nodes":"11","size_leaf_vector":"1"}},{"base_weights":[1.563646E-3,6.784331E-1,-1.6955376E0,5.606872E-1,7.1638055E-2,-1.16938E0,-4.3635156E-2,1.2250064E-3,8.088071E-3,-6.542681E-3,-2.3063421E-2],"categories":[],"categories_nodes":[],"categories_segments":[],"categories_sizes":[],"default_left":[0,0,0,0,0,0,0,0,0,0,0],"id":42,"left_children":[1,3,5,7,-1,9,-1,-1,-1,-1,-1],"loss_changes":[2.7799084E2,1.2809067E2,9.1757996E1,1.8492516E1,0E0,3.3045128E1,0E0,0E0,0E0,0E0,0E0],"parents":[2147483647,0,0,1,1,2,2,3,3,5,5],"right_children":[2,4,6,8,-1,10,-1,-1,-1,-1,-1],"split_conditions":[6.666667E-1,1.55E1,3.3333333E0,-2.4011976E-1,7.1638055E-2,2.3E0,-4.3635156E-2,1.2250064E-3,8.088071E-3,-6.542681E-3,-2.3063421E-2],"split_indices":[9,6,9,7,0,11,0,0,0,0,0],"split_type":[0,0,0,0,0,0,0,0,0,0,0],"sum_hessian":[2.4E2,1.72E2,6.8E1,1.7E2,2E0,5.8E1,1E1,6.2E1,1.08E2,4.1E1,1.7E1],"tree_param":{"num_deleted":"0","num_feature":"12","num_nodes":"11","size_leaf_vector":"1"}},{"base_weights":[1.5805351E-3,1.1370026E0,-1.9503424E0,2.5776243E0,5.686805E-1,-1.0730368E0,-3.925154E0,3.9936263E-2,2.0853408E-2,1.0782863E-2,1.1754424E-3,-7.2084186E-3,-1.6966343E-2,-4.119453E-2,-1.7780732E-2],"categories":[],"categories_nodes":[],"categories_segments":[],"categories_sizes":[],"default_left":[0,0,0,0,0,0,0,0,0,0,0,0,0,0,0],"id":43,"left_children":[1,3,5,7,9,11,13,-1,-1,-1,-1,-1,-1,-1,-1],"loss_changes":[5.363353E2,1.2380092E2,1.4998184E2,2.1646149E1,2.5392338E1,1.2613548E1,3.9390259E0,0E0,0E0,0E0,0E0,0E0,0E0,0E0,0E0],"parents":[2147483647,0,0,1,1,2,2,3,3,4,4,5,5,6,6],"right_children":[2,4,6,8,10,12,14,-1,-1,-1,-1,-1,-1,-1,-1],"split_conditions":[5E-1,-5E-1,1.5E0,-1.6666667E-1,0E0,1E0,9.7E0,3.9936263E-2,2.0853408E-2,1.0782863E-2,1.1754424E-3,-7.2084186E-3,-1.6966343E-2,-4.119453E-2,-1.7780732E-2],"split_indices":[2,2,2,9,2,2,11,0,0,0,0,0,0,0,0],"split_type":[0,0,0,0,0,0,0,0,0,0,0,0,0,0,0],"sum_hessian":[2.4E2,1.52E2,8.8E1,4.2E1,1.1E2,6.2E1,2.6E1,9E0,3.3E1,5.1E1,5.9E1,4.1E1,2.1E1,2.3E1,3E0],"tree_param":{"num_deleted":"0","num_feature":"12","num_nodes":"15","size_leaf_vector":"1"}},{"base_weights":[1.5216052E-3,1.1261075E0,-1.9317722E0,2.5532608E0,5.631011E-1,-1.0626888E0,-3.8880866E0,4.182784E-2,2.1202203E-2,1.0677095E-2,1.163889E-3,-7.1380376E-3,-1.6804378E-2,-4.079974E-2,-1.764738E-2],"categories":[],"categories_nodes":[],"categories_segments":[],"categories_sizes":[],"default_left":[0,0,0,0,0,0,0,0,0,0,0,0,0,0,0],"id":44,"left_children":[1,3,5,7,9,11,13,-1,-1,-1,-1,-1,-1,-1,-1],"loss_changes":[5.261467E2,1.2149718E2,1.47186E2,2.1474487E1,2.4896767E1,1.2378471E1,3.8009338E0,0E0,0E0,0E0,0E0,0E0,0E0,0E0,0E0],"parents":[2147483647,0,0,1,1,2,2,3,3,4,4,5,5,6,6],"right_children":[2,4,6,8,10,12,14,-1,-1,-1,-1,-1,-1,-1,-1],"split_conditions":[5E-1,-5E-1,1.5E0,-7.283096E-1,0E0,1E0,9.7E0,4.182784E-2,2.1202203E-2,1.0677095E-2,1.163889E-3,-7.1380376E-3,-1.6804378E-2,-4.079974E-2,-1.764738E-2],"split_indices":[2,2,2,1,2,2,11,0,0,0,0,0,0,0,0],"split_type":[0,0,0,0,0,0,0,0,0,0,0,0,0,0,0],"sum_hessian":[2.4E2,1.52E2,8.8E1,4.2E1,1.1E2,6.2E1,2.6E1,7E0,3.5E1,5.1E1,5.9E1,4.1E1,2.1E1,2.3E1,3E0],"tree_param":{"num_deleted":"0","num_feature":"12","num_nodes":"15","size_leaf_vector":"1"}},{"base_weights":[1.4749108E-3,1.1153358E0,-1.9133812E0,2.5291939E0,5.575769E-1,-1.0524427E0,-3.8513718E0,2.1358714E-2,7.061539E-2,1.0572375E-2,1.152448E-3,-8.056734E-3,-1.9395802E-2,-4.2667523E-2,-2.5465269E-2],"categories":[],"categories_nodes":[],"categories_segments":[],"categories_sizes":[],"default_left":[0,0,0,0,0,0,0,0,0,0,0,0,0,0,0],"id":45,"left_children":[1,3,5,7,9,11,13,-1,-1,-1,-1,-1,-1,-1,-1],"loss_changes":[5.161589E2,1.19244354E2,1.4444232E2,6.157245E1,2.4410923E1,1.2229172E1,3.7687988E0,0E0,0E0,0E0,0E0,0E0,0E0,0E0,0E0],"parents":[2147483647,0,0,1,1,2,2,3,3,4,4,5,5,6,6],"right_children":[2,4,6,8,10,12,14,-1,-1,-1,-1,-1,-1,-1,-1],"split_conditions":[5E-1,-5E-1,1.5E0,5E0,0E0,1.1666666E0,5E-1,2.1358714E-2,7.061539E-2,1.0572375E-2,1.152448E-3,-8.056734E-3,-1.9395802E-2,-4.2667523E-2,-2.5465269E-2],"split_indices":[2,2,2,6,2,9,6,0,0,0,0,0,0,0,0],"split_type":[0,0,0,0,0,0,0,0,0,0,0,0,0,0,0],"sum_hessian":[2.4E2,1.52E2,8.8E1,4.2E1,1.1E2,6.2E1,2.6E1,4E1,2E0,5.1E1,5.9E1,5E1,1.2E1,1.8E1,8E0],"tree_param":{"num_deleted":"0","num_feature":"12","num_nodes":"15","size_leaf_vector":"1"}},{"base_weights":[1.4943008E-3,6.587817E-1,-1.6465088E0,5.4342604E-1,7.014463E-2,-1.1350206E0,-4.240263E-2,9.292745E-3,-2.2252401E-7,-6.0721943E-3,-1.6249878E-2],"categories":[],"categories_nodes":[],"categories_segments":[],"categories_sizes":[],"default_left":[0,0,0,0,0,0,0,0,0,0,0],"id":46,"left_children":[1,3,5,7,-1,9,-1,-1,-1,-1,-1],"loss_changes":[2.621387E2,1.23025536E2,8.672775E1,3.5856792E1,0E0,1.4270988E1,0E0,0E0,0E0,0E0,0E0],"parents":[2147483647,0,0,1,1,2,2,3,3,5,5],"right_children":[2,4,6,8,-1,10,-1,-1,-1,-1,-1],"split_conditions":[6.666667E-1,1.55E1,3.3333333E0,1.25E-1,7.014463E-2,6.25E-1,-4.240263E-2,9.292745E-3,-2.2252401E-7,-6.0721943E-3,-1.6249878E-2],"split_indices":[9,6,9,10,0,10,0,0,0,0,0],"split_type":[0,0,0,0,0,0,0,0,0,0,0],"sum_hessian":[2.4E2,1.72E2,6.8E1,1.7E2,2E0,5.8E1,1E1,9.9E1,7.1E1,2.9E1,2.9E1],"tree_param":{"num_deleted":"0","num_feature":"12","num_nodes":"11","size_leaf_vector":"1"}},{"base_weights":[1.540647E-3,1.1011869E0,-1.8888798E0,2.4967191E0,5.5065465E-1,-1.0399411E0,-3.7997782E0,2.1086786E-2,6.9676995E-2,1.043388E-2,1.1444155E-3,-6.948688E-3,-1.6514454E-2,-4.2088326E-2,-2.5140205E-2],"categories":[],"categories_nodes":[],"categories_segments":[],"categories_sizes":[],"default_left":[0,0,0,0,0,0,0,0,0,0,0,0,0,0,0],"id":47,"left_children":[1,3,5,7,9,11,13,-1,-1,-1,-1,-1,-1,-1,-1],"loss_changes":[5.0306927E2,1.1617282E2,1.4042746E2,5.9908997E1,2.3738575E1,1.2146286E1,3.6193848E0,0E0,0E0,0E0,0E0,0E0,0E0,0E0,0E0],"parents":[2147483647,0,0,1,1,2,2,3,3,4,4,5,5,6,6],"right_children":[2,4,6,8,10,12,14,-1,-1,-1,-1,-1,-1,-1,-1],"split_conditions":[5E-1,-5E-1,1.5E0,5E0,0E0,1E0,5E-1,2.1086786E-2,6.9676995E-2,1.043388E-2,1.1444155E-3,-6.948688E-3,-1.6514454E-2,-4.2088326E-2,-2.5140205E-2],"split_indices":[2,2,2,6,2,2,6,0,0,0,0,0,0,0,0],"split_type":[0,0,0,0,0,0,0,0,0,0,0,0,0,0,0],"sum_hessian":[2.4E2,1.52E2,8.8E1,4.2E1,1.1E2,6.2E1,2.6E1,4E1,2E0,5.1E1,5.9E1,4.1E1,2.1E1,1.8E1,8E0],"tree_param":{"num_deleted":"0","num_feature":"12","num_nodes":"15","size_leaf_vector":"1"}},{"base_weights":[1.5737289E-3,1.0908439E0,-1.8710096E0,2.473862E0,5.4525274E-1,-1.0299132E0,-3.7642713E0,2.0881053E-2,6.921249E-2,8.244114E-3,-2.017506E-3,-6.8808394E-3,-1.6356822E-2,-3.9516035E-2,-1.6992092E-2],"categories":[],"categories_nodes":[],"categories_segments":[],"categories_sizes":[],"default_left":[0,0,0,0,0,0,0,0,0,0,0,0,0,0,0],"id":48,"left_children":[1,3,5,7,9,11,13,-1,-1,-1,-1,-1,-1,-1,-1],"loss_changes":[4.9362054E2,1.140992E2,1.3784814E2,5.931891E1,2.3313427E1,1.1919899E1,3.7303772E0,0E0,0E0,0E0,0E0,0E0,0E0,0E0,0E0],"parents":[2147483647,0,0,1,1,2,2,3,3,4,4,5,5,6,6],"right_children":[2,4,6,8,10,12,14,-1,-1,-1,-1,-1,-1,-1,-1],"split_conditions":[5E-1,-5E-1,1.5E0,5E0,5E-1,1E0,9.7E0,2.0881053E-2,6.921249E-2,8.244114E-3,-2.017506E-3,-6.8808394E-3,-1.6356822E-2,-3.9516035E-2,-1.6992092E-2],"split_indices":[2,2,2,6,9,2,11,0,0,0,0,0,0,0,0],"split_type":[0,0,0,0,0,0,0,0,0,0,0,0,0,0,0],"sum_hessian":[2.4E2,1.52E2,8.8E1,4.2E1,1.1E2,6.2E1,2.6E1,4E1,2E0,8E1,3E1,4.1E1,2.1E1,2.3E1,3E0],"tree_param":{"num_deleted":"0","num_feature":"12","num_nodes":"15","size_leaf_vector":"1"}},{"base_weights":[1.6271188E-3,6.4363164E-1,-1.60806E0,5.305436E-1,6.875107E-2,-1.1071204E0,-4.1487306E-2,3.2022165E-3,9.455696E-3,-6.2439186E-3,-2.1719806E-2],"categories":[],"categories_nodes":[],"categories_segments":[],"categories_sizes":[],"default_left":[0,0,0,0,0,0,0,0,0,0,0],"id":49,"left_children":[1,3,5,7,-1,9,-1,-1,-1,-1,-1],"loss_changes":[2.5009077E2,1.18266495E2,8.32247E1,1.4623634E1,0E0,2.8972107E1,0E0,0E0,0E0,0E0,0E0],"parents":[2147483647,0,0,1,1,2,2,3,3,5,5],"right_children":[2,4,6,8,-1,10,-1,-1,-1,-1,-1],"split_conditions":[6.666667E-1,1.55E1,3.3333333E0,5.167181E-1,6.875107E-2,2.3E0,-4.1487306E-2,3.2022165E-3,9.455696E-3,-6.2439186E-3,-2.1719806E-2],"split_indices":[9,6,9,4,0,11,0,0,0,0,0],"split_type":[0,0,0,0,0,0,0,0,0,0,0],"sum_hessian":[2.4E2,1.72E2,6.8E1,1.7E2,2E0,5.8E1,1E1,1.14E2,5.6E1,4.1E1,1.7E1],"tree_param":{"num_deleted":"0","num_feature":"12","num_nodes":"11","size_leaf_vector":"1"}},{"base_weights":[1.6612927E-3,1.0769496E0,-1.8468868E0,2.4433742E0,5.379117E-1,-1.0180804E0,-3.7123652E0,3.8098454E-2,1.9696068E-2,1.0228747E-2,1.0864531E-3,-6.7996406E-3,-1.6172986E-2,-3.1246306E-2,-4.9452297E-2],"categories":[],"categories_nodes":[],"categories_segments":[],"categories_sizes":[],"default_left":[0,0,0,0,0,0,0,0,0,0,0,0,0,0,0],"id":50,"left_children":[1,3,5,7,9,11,13,-1,-1,-1,-1,-1,-1,-1,-1],"loss_changes":[4.8103003E2,1.11378525E2,1.3382523E2,2.0333832E1,2.2996662E1,1.1664429E1,4.1121216E0,0E0,0E0,0E0,0E0,0E0,0E0,0E0,0E0],"parents":[2147483647,0,0,1,1,2,2,3,3,4,4,5,5,6,6],"right_children":[2,4,6,8,10,12,14,-1,-1,-1,-1,-1,-1,-1,-1],"split_conditions":[5E-1,-5E-1,1.5E0,-1.6666667E-1,0E0,1E0,2.5E0,3.8098454E-2,1.9696068E-2,1.0228747E-2,1.0864531E-3,-6.7996406E-3,-1.6172986E-2,-3.1246306E-2,-4.9452297E-2],"split_indices":[2,2,2,9,2,2,2,0,0,0,0,0,0,0,0],"split_type":[0,0,0,0,0,0,0,0,0,0,0,0,0,0,0],"sum_hessian":[2.4E2,1.52E2,8.8E1,4.2E1,1.1E2,6.2E1,2.6E1,9E0,3.3E1,5.1E1,5.9E1,4.1E1,2.1E1,2E1,6E0],"tree_param":{"num_deleted":"0","num_feature":"12","num_nodes":"15","size_leaf_vector":"1"}},{"base_weights":[1.501392E-3,1.0666323E0,-1.8295832E0,2.4202852E0,5.3263485E-1,-1.0082649E0,-3.67823E0,2.0405035E-2,6.803873E-2,1.0128442E-2,1.0757624E-3,-6.733281E-3,-1.6018596E-2,-3.0948725E-2,-4.902841E-2],"categories":[],"categories_nodes":[],"categories_segments":[],"categories_sizes":[],"default_left":[0,0,0,0,0,0,0,0,0,0,0,0,0,0,0],"id":51,"left_children":[1,3,5,7,9,11,13,-1,-1,-1,-1,-1,-1,-1,-1],"loss_changes":[4.7198456E2,1.0930647E2,1.3142252E2,5.7703384E1,2.2548037E1,1.1446877E1,4.114746E0,0E0,0E0,0E0,0E0,0E0,0E0,0E0,0E0],"parents":[2147483647,0,0,1,1,2,2,3,3,4,4,5,5,6,6],"right_children":[2,4,6,8,10,12,14,-1,-1,-1,-1,-1,-1,-1,-1],"split_conditions":[5E-1,-5E-1,1.5E0,5E0,0E0,1E0,2.5E0,2.0405035E-2,6.803873E-2,1.0128442E-2,1.0757624E-3,-6.733281E-3,-1.6018596E-2,-3.0948725E-2,-4.902841E-2],"split_indices":[2,2,2,6,2,2,2,0,0,0,0,0,0,0,0],"split_type":[0,0,0,0,0,0,0,0,0,0,0,0,0,0,0],"sum_hessian":[2.4E2,1.52E2,8.8E1,4.2E1,1.1E2,6.2E1,2.6E1,4E1,2E0,5.1E1,5.9E1,4.1E1,2.1E1,2E1,6E0],"tree_param":{"num_deleted":"0","num_feature":"12","num_nodes":"15","size_leaf_vector":"1"}},{"base_weights":[1.4736445E-3,1.0566174E0,-1.8124418E0,2.3981395E0,5.274097E-1,-9.9854386E-1,-3.6444094E0,2.0205965E-2,6.758514E-2,1.0029108E-2,1.0651842E-3,-6.667555E-3,-1.5865697E-2,-3.0653974E-2,-4.8608154E-2],"categories":[],"categories_nodes":[],"categories_segments":[],"categories_sizes":[],"default_left":[0,0,0,0,0,0,0,0,0,0,0,0,0,0,0],"id":52,"left_children":[1,3,5,7,9,11,13,-1,-1,-1,-1,-1,-1,-1,-1],"loss_changes":[4.6317496E2,1.0735661E2,1.2906299E2,5.7131607E1,2.2108082E1,1.1233456E1,4.11615E0,0E0,0E0,0E0,0E0,0E0,0E0,0E0,0E0],"parents":[2147483647,0,0,1,1,2,2,3,3,4,4,5,5,6,6],"right_children":[2,4,6,8,10,12,14,-1,-1,-1,-1,-1,-1,-1,-1],"split_conditions":[5E-1,-5E-1,1.5E0,5E0,0E0,1E0,2.5E0,2.0205965E-2,6.758514E-2,1.0029108E-2,1.0651842E-3,-6.667555E-3,-1.5865697E-2,-3.0653974E-2,-4.8608154E-2],"split_indices":[2,2,2,6,2,2,2,0,0,0,0,0,0,0,0],"split_type":[0,0,0,0,0,0,0,0,0,0,0,0,0,0,0],"sum_hessian":[2.4E2,1.52E2,8.8E1,4.2E1,1.1E2,6.2E1,2.6E1,4E1,2E0,5.1E1,5.9E1,4.1E1,2.1E1,2E1,6E0],"tree_param":{"num_deleted":"0","num_feature":"12","num_nodes":"15","size_leaf_vector":"1"}},{"base_weights":[1.4471315E-3,1.0466979E0,-1.7954608E0,2.3761992E0,5.222361E-1,-9.8891586E-1,-3.6109006E0,2.0008828E-2,6.7134574E-2,9.930749E-3,1.0547186E-3,-6.602462E-3,-1.5714256E-2,-3.0362023E-2,-4.819152E-2],"categories":[],"categories_nodes":[],"categories_segments":[],"categories_sizes":[],"default_left":[0,0,0,0,0,0,0,0,0,0,0,0,0,0,0],"id":53,"left_children":[1,3,5,7,9,11,13,-1,-1,-1,-1,-1,-1,-1,-1],"loss_changes":[4.5453018E2,1.0544177E2,1.2674591E2,5.656447E1,2.1676653E1,1.1024029E1,4.1163635E0,0E0,0E0,0E0,0E0,0E0,0E0,0E0,0E0],"parents":[2147483647,0,0,1,1,2,2,3,3,4,4,5,5,6,6],"right_children":[2,4,6,8,10,12,14,-1,-1,-1,-1,-1,-1,-1,-1],"split_conditions":[5E-1,-5E-1,1.5E0,5E0,0E0,1E0,2.5E0,2.0008828E-2,6.7134574E-2,9.930749E-3,1.0547186E-3,-6.602462E-3,-1.5714256E-2,-3.0362023E-2,-4.819152E-2],"split_indices":[2,2,2,6,2,2,2,0,0,0,0,0,0,0,0],"split_type":[0,0,0,0,0,0,0,0,0,0,0,0,0,0,0],"sum_hessian":[2.4E2,1.52E2,8.8E1,4.2E1,1.1E2,6.2E1,2.6E1,4E1,2E0,5.1E1,5.9E1,4.1E1,2.1E1,2E1,6E0],"tree_param":{"num_deleted":"0","num_feature":"12","num_nodes":"15","size_leaf_vector":"1"}},{"base_weights":[1.4220115E-3,1.0368736E0,-1.7786398E0,2.3544645E0,5.171142E-1,-9.7938097E-1,-3.5777018E0,3.6925722E-2,1.8916544E-2,7.878802E-3,-2.0705217E-3,-7.421462E-3,-1.834734E-2,-3.007287E-2,-4.7778457E-2],"categories":[],"categories_nodes":[],"categories_segments":[],"categories_sizes":[],"default_left":[0,0,0,0,0,0,0,0,0,0,0,0,0,0,0],"id":54,"left_children":[1,3,5,7,9,11,13,-1,-1,-1,-1,-1,-1,-1,-1],"loss_changes":[4.4604767E2,1.0356149E2,1.2447058E2,1.964441E1,2.1927969E1,1.1422291E1,4.1152954E0,0E0,0E0,0E0,0E0,0E0,0E0,0E0,0E0],"parents":[2147483647,0,0,1,1,2,2,3,3,4,4,5,5,6,6],"right_children":[2,4,6,8,10,12,14,-1,-1,-1,-1,-1,-1,-1,-1],"split_conditions":[5E-1,-5E-1,1.5E0,-1.6666667E-1,5E-1,1.1666666E0,2.5E0,3.6925722E-2,1.8916544E-2,7.878802E-3,-2.0705217E-3,-7.421462E-3,-1.834734E-2,-3.007287E-2,-4.7778457E-2],"split_indices":[2,2,2,9,9,9,2,0,0,0,0,0,0,0,0],"split_type":[0,0,0,0,0,0,0,0,0,0,0,0,0,0,0],"sum_hessian":[2.4E2,1.52E2,8.8E1,4.2E1,1.1E2,6.2E1,2.6E1,9E0,3.3E1,8E1,3E1,5E1,1.2E1,2E1,6E0],"tree_param":{"num_deleted":"0","num_feature":"12","num_nodes":"15","size_leaf_vector":"1"}},{"base_weights":[1.2336985E-3,6.7029953E-1,-2.702933E0,1.6075176E0,-2.0859946E-1,-1.5468608E-2,-3.544809E0,1.4258087E-2,6.6440836E-2,1.0017254E-3,-6.4473567E-3,-2.9786477E-2,-4.736892E-2],"categories":[],"categories_nodes":[],"categories_segments":[],"categories_sizes":[],"default_left":[0,0,0,0,0,0,0,0,0,0,0,0,0],"id":55,"left_children":[1,3,5,7,9,-1,11,-1,-1,-1,-1,-1,-1],"loss_changes":[4.378448E2,1.6013701E2,4.1233612E1,7.655452E1,1.3665916E1,0E0,4.1130676E0,0E0,0E0,0E0,0E0,0E0,0E0],"parents":[2147483647,0,0,1,1,2,2,3,3,4,4,6,6],"right_children":[2,4,6,8,10,-1,12,-1,-1,-1,-1,-1,-1],"split_conditions":[1E0,0E0,1.5E0,5E0,5E-1,-1.5468608E-2,2.5E0,1.4258087E-2,6.6440836E-2,1.0017254E-3,-6.4473567E-3,-2.9786477E-2,-4.736892E-2],"split_indices":[2,2,2,6,2,0,2,0,0,0,0,0,0],"split_type":[0,0,0,0,0,0,0,0,0,0,0,0,0],"sum_hessian":[2.4E2,1.93E2,4.7E1,9.3E1,1E2,2.1E1,2.6E1,9.1E1,2E0,5.9E1,4.1E1,2E1,6E0],"tree_param":{"num_deleted":"0","num_feature":"12","num_nodes":"13","size_leaf_vector":"1"}},{"base_weights":[1.1481922E-3,6.639833E-1,-2.677834E0,1.5922997E0,-2.065685E-1,-1.5320953E-2,-3.5122201E0,2.315863E-2,9.633471E-3,-5.162938E-4,-1.784654E-2,-2.9502809E-2,-4.6962917E-2],"categories":[],"categories_nodes":[],"categories_segments":[],"categories_sizes":[],"default_left":[0,0,0,0,0,0,0,0,0,0,0,0,0],"id":56,"left_children":[1,3,5,7,9,-1,11,-1,-1,-1,-1,-1,-1],"loss_changes":[4.2972742E2,1.5710953E2,4.050638E1,4.054721E1,2.4603083E1,0E0,4.1097717E0,0E0,0E0,0E0,0E0,0E0,0E0],"parents":[2147483647,0,0,1,1,2,2,3,3,4,4,6,6],"right_children":[2,4,6,8,10,-1,12,-1,-1,-1,-1,-1,-1],"split_conditions":[1E0,0E0,1.5E0,-5E-1,2.3333333E0,-1.5320953E-2,2.5E0,2.315863E-2,9.633471E-3,-5.162938E-4,-1.784654E-2,-2.9502809E-2,-4.6962917E-2],"split_indices":[2,2,2,2,9,0,2,0,0,0,0,0,0],"split_type":[0,0,0,0,0,0,0,0,0,0,0,0,0],"sum_hessian":[2.4E2,1.93E2,4.7E1,9.3E1,1E2,2.1E1,2.6E1,4.2E1,5.1E1,9.2E1,8E0,2E1,6E0],"tree_param":{"num_deleted":"0","num_feature":"12","num_nodes":"13","size_leaf_vector":"1"}},{"base_weights":[8.153005E-4,1.0081424E0,-1.730891E0,2.2932427E0,5.012284E-1,-9.5382845E-1,-3.47993E0,3.8320985E-2,1.8875737E-2,7.6748286E-3,-2.1063748E-3,-7.2057173E-3,-1.795541E-2,-2.9221827E-2,-4.6560377E-2],"categories":[],"categories_nodes":[],"categories_segments":[],"categories_sizes":[],"default_left":[0,0,0,0,0,0,0,0,0,0,0,0,0,0,0],"id":57,"left_children":[1,3,5,7,9,11,13,-1,-1,-1,-1,-1,-1,-1,-1],"loss_changes":[4.2214413E2,9.852017E1,1.17641754E2,1.9610092E1,2.1200317E1,1.1075298E1,4.105438E0,0E0,0E0,0E0,0E0,0E0,0E0,0E0,0E0],"parents":[2147483647,0,0,1,1,2,2,3,3,4,4,5,5,6,6],"right_children":[2,4,6,8,10,12,14,-1,-1,-1,-1,-1,-1,-1,-1],"split_conditions":[5E-1,-5E-1,1.5E0,-7.283096E-1,5E-1,1.1666666E0,2.5E0,3.8320985E-2,1.8875737E-2,7.6748286E-3,-2.1063748E-3,-7.2057173E-3,-1.795541E-2,-2.9221827E-2,-4.6560377E-2],"split_indices":[2,2,2,1,9,9,2,0,0,0,0,0,0,0,0],"split_type":[0,0,0,0,0,0,0,0,0,0,0,0,0,0,0],"sum_hessian":[2.4E2,1.52E2,8.8E1,4.2E1,1.1E2,6.2E1,2.6E1,7E0,3.5E1,8E1,3E1,5E1,1.2E1,2E1,6E0],"tree_param":{"num_deleted":"0","num_feature":"12","num_nodes":"15","size_leaf_vector":"1"}},{"base_weights":[6.4859353E-4,6.033776E-1,-1.5105509E0,4.9536794E-1,6.558802E-2,-1.0344592E0,-3.9268105E0,6.66219E-3,6.8583986E-4,-5.9687626E-3,-1.9980162E-2,-1.7034048E-2,-4.2316336E-2],"categories":[],"categories_nodes":[],"categories_segments":[],"categories_sizes":[],"default_left":[0,0,0,0,0,0,0,0,0,0,0,0,0],"id":58,"left_children":[1,3,5,7,-1,9,11,-1,-1,-1,-1,-1,-1],"loss_changes":[2.2042476E2,1.080321E2,7.531279E1,1.2423027E1,0E0,2.3683971E1,2.4699402E-1,0E0,0E0,0E0,0E0,0E0,0E0],"parents":[2147483647,0,0,1,1,2,2,3,3,5,5,6,6],"right_children":[2,4,6,8,-1,10,12,-1,-1,-1,-1,-1,-1],"split_conditions":[6.666667E-1,1.55E1,3.3333333E0,1.6666667E-1,6.558802E-2,2.3E0,-3.3333334E-1,6.66219E-3,6.8583986E-4,-5.9687626E-3,-1.9980162E-2,-1.7034048E-2,-4.2316336E-2],"split_indices":[9,6,9,9,0,11,8,0,0,0,0,0,0],"split_type":[0,0,0,0,0,0,0,0,0,0,0,0,0],"sum_hessian":[2.4E2,1.72E2,6.8E1,1.7E2,2E0,5.8E1,1E1,1.21E2,4.9E1,4.1E1,1.7E1,2E0,8E0],"tree_param":{"num_deleted":"0","num_feature":"12","num_nodes":"13","size_leaf_vector":"1"}},{"base_weights":[5.917846E-4,6.4928764E-1,-2.621233E0,1.5583316E0,-2.0318185E-1,-1.5057072E-2,-3.4330971E0,2.2639701E-2,9.448549E-3,-5.2084564E-4,-1.7419446E-2,-2.8785238E-2,-4.606374E-2],"categories":[],"categories_nodes":[],"categories_segments":[],"categories_sizes":[],"default_left":[0,0,0,0,0,0,0,0,0,0,0,0,0],"id":59,"left_children":[1,3,5,7,9,-1,11,-1,-1,-1,-1,-1,-1],"loss_changes":[4.1158676E2,1.5065347E2,3.8302185E1,3.8552826E1,2.3392061E1,0E0,4.3084717E0,0E0,0E0,0E0,0E0,0E0,0E0],"parents":[2147483647,0,0,1,1,2,2,3,3,4,4,6,6],"right_children":[2,4,6,8,10,-1,12,-1,-1,-1,-1,-1,-1],"split_conditions":[1E0,0E0,1.5E0,-5E-1,2.3333333E0,-1.5057072E-2,2.5E0,2.2639701E-2,9.448549E-3,-5.2084564E-4,-1.7419446E-2,-2.8785238E-2,-4.606374E-2],"split_indices":[2,2,2,2,9,0,2,0,0,0,0,0,0],"split_type":[0,0,0,0,0,0,0,0,0,0,0,0,0],"sum_hessian":[2.4E2,1.93E2,4.7E1,9.3E1,1E2,2.1E1,2.6E1,4.2E1,5.1E1,9.2E1,8E0,2E1,6E0],"tree_param":{"num_deleted":"0","num_feature":"12","num_nodes":"13","size_leaf_vector":"1"}},{"base_weights":[2.7195152E-4,-8.131554E-2,6.499985E-2,3.2269093E-1,-9.0364116E-1,1.3278358E-2,1.6243465E-3,-4.78697E-3,-1.8575259E-2],"categories":[],"categories_nodes":[],"categories_segments":[],"categories_sizes":[],"default_left":[0,0,0,0,0,0,0,0,0],"id":60,"left_children":[1,3,-1,5,7,-1,-1,-1,-1],"loss_changes":[1.2832971E2,7.9693344E1,0E0,2.5718315E1,3.1133278E1,0E0,0E0,0E0,0E0],"parents":[2147483647,0,0,1,1,3,3,4,4],"right_children":[2,4,-1,6,8,-1,-1,-1,-1],"split_conditions":[1.55E1,5E-1,6.499985E-2,-3.75E-1,6.666667E-1,1.3278358E-2,1.6243465E-3,-4.78697E-3,-1.8575259E-2],"split_indices":[6,10,0,10,11,0,0,0,0],"split_type":[0,0,0,0,0,0,0,0,0],"sum_hessian":[2.4E2,2.38E2,2E0,1.6E2,7.8E1,2.1E1,1.39E2,5.5E1,2.3E1],"tree_param":{"num_deleted":"0","num_feature":"12","num_nodes":"9","size_leaf_vector":"1"}},{"base_weights":[5.0331844E-4,9.842901E-1,-1.6907313E0,2.2351806E0,4.9084342E-1,-9.3393934E-1,-3.3939595E0,1.871776E-2,6.456649E-2,9.34069E-3,9.853375E-4,-6.2191337E-3,-1.4871734E-2,-2.8437862E-2,-4.5596283E-2],"categories":[],"categories_nodes":[],"categories_segments":[],"categories_sizes":[],"default_left":[0,0,0,0,0,0,0,0,0,0,0,0,0,0,0],"id":61,"left_children":[1,3,5,7,9,11,13,-1,-1,-1,-1,-1,-1,-1,-1],"loss_changes":[4.0264343E2,9.334178E1,1.1155031E2,5.3880966E1,1.9208834E1,9.950386E0,4.34906E0,0E0,0E0,0E0,0E0,0E0,0E0,0E0,0E0],"parents":[2147483647,0,0,1,1,2,2,3,3,4,4,5,5,6,6],"right_children":[2,4,6,8,10,12,14,-1,-1,-1,-1,-1,-1,-1,-1],"split_conditions":[5E-1,-5E-1,1.5E0,5E0,0E0,1E0,2.5E0,1.871776E-2,6.456649E-2,9.34069E-3,9.853375E-4,-6.2191337E-3,-1.4871734E-2,-2.8437862E-2,-4.5596283E-2],"split_indices":[2,2,2,6,2,2,2,0,0,0,0,0,0,0,0],"split_type":[0,0,0,0,0,0,0,0,0,0,0,0,0,0,0],"sum_hessian":[2.4E2,1.52E2,8.8E1,4.2E1,1.1E2,6.2E1,2.6E1,4E1,2E0,5.1E1,5.9E1,4.1E1,2.1E1,2E1,6E0],"tree_param":{"num_deleted":"0","num_feature":"12","num_nodes":"15","size_leaf_vector":"1"}},{"base_weights":[4.9182685E-4,5.881051E-1,-1.4728066E0,1.7244886E0,4.1111884E-1,-1.0055872E0,-3.84491E0,5.441126E-2,8.949367E-3,7.508842E-3,-2.6062867E-4,-5.8590868E-3,-1.928971E-2,-1.6640421E-2,-4.1446537E-2],"categories":[],"categories_nodes":[],"categories_segments":[],"categories_sizes":[],"default_left":[0,0,0,0,0,0,0,0,0,0,0,0,0,0,0],"id":62,"left_children":[1,3,5,7,9,11,13,-1,-1,-1,-1,-1,-1,-1,-1],"loss_changes":[2.0950702E2,3.4085526E1,7.260582E1,6.604283E1,2.244899E1,2.173373E1,2.938385E-1,0E0,0E0,0E0,0E0,0E0,0E0,0E0,0E0],"parents":[2147483647,0,0,1,1,2,2,3,3,4,4,5,5,6,6],"right_children":[2,4,6,8,10,12,14,-1,-1,-1,-1,-1,-1,-1,-1],"split_conditions":[6.666667E-1,-6.631365E-1,3.3333333E0,-1.6666667E-1,1.25E-1,2.3E0,-3.3333334E-1,5.441126E-2,8.949367E-3,7.508842E-3,-2.6062867E-4,-5.8590868E-3,-1.928971E-2,-1.6640421E-2,-4.1446537E-2],"split_indices":[9,1,9,9,10,11,8,0,0,0,0,0,0,0,0],"split_type":[0,0,0,0,0,0,0,0,0,0,0,0,0,0,0],"sum_hessian":[2.4E2,1.72E2,6.8E1,2.2E1,1.5E2,5.8E1,1E1,3E0,1.9E1,8.4E1,6.6E1,4.1E1,1.7E1,2E0,8E0],"tree_param":{"num_deleted":"0","num_feature":"12","num_nodes":"15","size_leaf_vector":"1"}},{"base_weights":[4.34828E-4,5.826324E-1,-1.4592843E0,4.775639E-1,6.377329E-2,-9.95957E-1,-3.8117416E0,-6.710469E-4,6.0343794E-3,-5.8018886E-3,-1.9107517E-2,-1.652949E-2,-4.1078124E-2],"categories":[],"categories_nodes":[],"categories_segments":[],"categories_sizes":[],"default_left":[0,0,0,0,0,0,0,0,0,0,0,0,0],"id":63,"left_children":[1,3,5,7,-1,9,11,-1,-1,-1,-1,-1,-1],"loss_changes":[2.0566287E2,1.0228381E2,7.141077E1,1.17641945E1,0E0,2.1331608E1,2.407074E-1,0E0,0E0,0E0,0E0,0E0,0E0],"parents":[2147483647,0,0,1,1,2,2,3,3,5,5,6,6],"right_children":[2,4,6,8,-1,10,12,-1,-1,-1,-1,-1,-1],"split_conditions":[6.666667E-1,1.55E1,3.3333333E0,-5E-1,6.377329E-2,2.3E0,-3.3333334E-1,-6.710469E-4,6.0343794E-3,-5.8018886E-3,-1.9107517E-2,-1.652949E-2,-4.1078124E-2],"split_indices":[9,6,9,6,0,11,8,0,0,0,0,0,0],"split_type":[0,0,0,0,0,0,0,0,0,0,0,0,0],"sum_hessian":[2.4E2,1.72E2,6.8E1,1.7E2,2E0,5.8E1,1E1,3.2E1,1.38E2,4.1E1,1.7E1,2E0,8E0],"tree_param":{"num_deleted":"0","num_feature":"12","num_nodes":"13","size_leaf_vector":"1"}},{"base_weights":[3.7474255E-4,9.682968E-1,-1.6635853E0,2.1990001E0,4.8281443E-1,-9.21824E-1,-3.3327477E0,1.8427456E-2,6.334814E-2,9.188202E-3,9.689585E-4,-6.142863E-3,-1.4670402E-2,-2.7851433E-2,-4.499454E-2],"categories":[],"categories_nodes":[],"categories_segments":[],"categories_sizes":[],"default_left":[0,0,0,0,0,0,0,0,0,0,0,0,0,0,0],"id":64,"left_children":[1,3,5,7,9,11,13,-1,-1,-1,-1,-1,-1,-1,-1],"loss_changes":[3.897615E2,9.035344E1,1.071205E2,5.1682877E1,1.858813E1,9.662308E0,4.718506E0,0E0,0E0,0E0,0E0,0E0,0E0,0E0,0E0],"parents":[2147483647,0,0,1,1,2,2,3,3,4,4,5,5,6,6],"right_children":[2,4,6,8,10,12,14,-1,-1,-1,-1,-1,-1,-1,-1],"split_conditions":[5E-1,-5E-1,1.5E0,5E0,0E0,1E0,2.5E0,1.8427456E-2,6.334814E-2,9.188202E-3,9.689585E-4,-6.142863E-3,-1.4670402E-2,-2.7851433E-2,-4.499454E-2],"split_indices":[2,2,2,6,2,2,2,0,0,0,0,0,0,0,0],"split_type":[0,0,0,0,0,0,0,0,0,0,0,0,0,0,0],"sum_hessian":[2.4E2,1.52E2,8.8E1,4.2E1,1.1E2,6.2E1,2.6E1,4E1,2E0,5.1E1,5.9E1,4.1E1,2.1E1,2E1,6E0],"tree_param":{"num_deleted":"0","num_feature":"12","num_nodes":"15","size_leaf_vector":"1"}},{"base_weights":[3.6317183E-4,9.592139E-1,-1.6480023E0,2.1789107E0,4.7807717E-1,-9.1293657E-1,-3.3021185E0,3.4503307E-2,1.740878E-2,7.2910767E-3,-1.9326314E-3,-6.913546E-3,-1.7119935E-2,-2.7586184E-2,-4.4608872E-2],"categories":[],"categories_nodes":[],"categories_segments":[],"categories_sizes":[],"default_left":[0,0,0,0,0,0,0,0,0,0,0,0,0,0,0],"id":65,"left_children":[1,3,5,7,9,11,13,-1,-1,-1,-1,-1,-1,-1,-1],"loss_changes":[3.8249005E2,8.874498E1,1.0519908E2,1.7941116E1,1.8847397E1,9.97097E0,4.698456E0,0E0,0E0,0E0,0E0,0E0,0E0,0E0,0E0],"parents":[2147483647,0,0,1,1,2,2,3,3,4,4,5,5,6,6],"right_children":[2,4,6,8,10,12,14,-1,-1,-1,-1,-1,-1,-1,-1],"split_conditions":[5E-1,-5E-1,1.5E0,-1.6666667E-1,5E-1,1.1666666E0,2.5E0,3.4503307E-2,1.740878E-2,7.2910767E-3,-1.9326314E-3,-6.913546E-3,-1.7119935E-2,-2.7586184E-2,-4.4608872E-2],"split_indices":[2,2,2,9,9,9,2,0,0,0,0,0,0,0,0],"split_type":[0,0,0,0,0,0,0,0,0,0,0,0,0,0,0],"sum_hessian":[2.4E2,1.52E2,8.8E1,4.2E1,1.1E2,6.2E1,2.6E1,9E0,3.3E1,8E1,3E1,5E1,1.2E1,2E1,6E0],"tree_param":{"num_deleted":"0","num_feature":"12","num_nodes":"15","size_leaf_vector":"1"}},{"base_weights":[1.9815848E-4,5.6882423E-1,-1.4254904E0,4.6548447E-1,6.269582E-2,-9.705267E-1,-3.73616E0,7.9504885E-3,1.2911161E-5,-5.6733047E-3,-1.8573996E-2,-1.6156958E-2,-4.0278524E-2],"categories":[],"categories_nodes":[],"categories_segments":[],"categories_sizes":[],"default_left":[0,0,0,0,0,0,0,0,0,0,0,0,0],"id":66,"left_children":[1,3,5,7,-1,9,11,-1,-1,-1,-1,-1,-1],"loss_changes":[1.961856E2,9.8998505E1,6.891162E1,2.6158821E1,0E0,2.0043682E1,2.9599E-1,0E0,0E0,0E0,0E0,0E0,0E0],"parents":[2147483647,0,0,1,1,2,2,3,3,5,5,6,6],"right_children":[2,4,6,8,-1,10,12,-1,-1,-1,-1,-1,-1],"split_conditions":[6.666667E-1,1.55E1,3.3333333E0,1.25E-1,6.269582E-2,2.3E0,-3.3333334E-1,7.9504885E-3,1.2911161E-5,-5.6733047E-3,-1.8573996E-2,-1.6156958E-2,-4.0278524E-2],"split_indices":[9,6,9,10,0,11,8,0,0,0,0,0,0],"split_type":[0,0,0,0,0,0,0,0,0,0,0,0,0],"sum_hessian":[2.4E2,1.72E2,6.8E1,1.7E2,2E0,5.8E1,1E1,9.9E1,7.1E1,4.1E1,1.7E1,2E0,8E0],"tree_param":{"num_deleted":"0","num_feature":"12","num_nodes":"13","size_leaf_vector":"1"}},{"base_weights":[1.5512048E-4,9.4663346E-1,-1.6269386E0,2.150259E0,4.7183588E-1,-9.024381E-1,-3.2571828E0,1.7994583E-2,6.227783E-2,7.1738823E-3,-1.8498931E-3,-6.85139E-3,-1.6855009E-2,-2.7168969E-2,-4.4127285E-2],"categories":[],"categories_nodes":[],"categories_segments":[],"categories_sizes":[],"default_left":[0,0,0,0,0,0,0,0,0,0,0,0,0,0,0],"id":67,"left_children":[1,3,5,7,9,11,13,-1,-1,-1,-1,-1,-1,-1,-1],"loss_changes":[3.726823E2,8.642166E1,1.0217963E2,5.030049E1,1.8035347E1,9.565201E0,4.867859E0,0E0,0E0,0E0,0E0,0E0,0E0,0E0,0E0],"parents":[2147483647,0,0,1,1,2,2,3,3,4,4,5,5,6,6],"right_children":[2,4,6,8,10,12,14,-1,-1,-1,-1,-1,-1,-1,-1],"split_conditions":[5E-1,-5E-1,1.5E0,5E0,5E-1,1.1666666E0,2.5E0,1.7994583E-2,6.227783E-2,7.1738823E-3,-1.8498931E-3,-6.85139E-3,-1.6855009E-2,-2.7168969E-2,-4.4127285E-2],"split_indices":[2,2,2,6,9,9,2,0,0,0,0,0,0,0,0],"split_type":[0,0,0,0,0,0,0,0,0,0,0,0,0,0,0],"sum_hessian":[2.4E2,1.52E2,8.8E1,4.2E1,1.1E2,6.2E1,2.6E1,4E1,2E0,8E1,3E1,5E1,1.2E1,2E1,6E0],"tree_param":{"num_deleted":"0","num_feature":"12","num_nodes":"15","size_leaf_vector":"1"}},{"base_weights":[1.1399772E-4,6.117379E-1,-2.4718683E0,1.4699568E0,-1.9305725E-1,-1.4324488E-2,-3.227252E0,1.3001863E-2,6.186264E-2,-6.774524E-4,-1.8661406E-2,-2.6910223E-2,-4.3749046E-2],"categories":[],"categories_nodes":[],"categories_segments":[],"categories_sizes":[],"default_left":[0,0,0,0,0,0,0,0,0,0,0,0,0],"id":68,"left_children":[1,3,5,7,9,-1,11,-1,-1,-1,-1,-1,-1],"loss_changes":[3.6588568E2,1.3427773E2,3.306482E1,6.722153E1,2.1048979E1,0E0,4.842987E0,0E0,0E0,0E0,0E0,0E0,0E0],"parents":[2147483647,0,0,1,1,2,2,3,3,4,4,6,6],"right_children":[2,4,6,8,10,-1,12,-1,-1,-1,-1,-1,-1],"split_conditions":[1E0,0E0,1.5E0,5E0,2.8333333E0,-1.4324488E-2,2.5E0,1.3001863E-2,6.186264E-2,-6.774524E-4,-1.8661406E-2,-2.6910223E-2,-4.3749046E-2],"split_indices":[2,2,2,6,9,0,2,0,0,0,0,0,0],"split_type":[0,0,0,0,0,0,0,0,0,0,0,0,0],"sum_hessian":[2.4E2,1.93E2,4.7E1,9.3E1,1E2,2.1E1,2.6E1,9.1E1,2E0,9.4E1,6E0,2E1,6E0],"tree_param":{"num_deleted":"0","num_feature":"12","num_nodes":"13","size_leaf_vector":"1"}},{"base_weights":[-8.310025E-6,9.2968196E-1,-1.5982398E0,2.1156533E0,4.6187615E-1,-8.874321E-1,-3.197597E0,1.7692199E-2,6.1450247E-2,7.03879E-3,-1.8535306E-3,-6.7347563E-3,-1.6585357E-2,-2.665395E-2,-4.3374036E-2],"categories":[],"categories_nodes":[],"categories_segments":[],"categories_sizes":[],"default_left":[0,0,0,0,0,0,0,0,0,0,0,0,0,0,0],"id":69,"left_children":[1,3,5,7,9,11,13,-1,-1,-1,-1,-1,-1,-1,-1],"loss_changes":[3.595782E2,8.390787E1,9.83407E1,4.915219E1,1.751654E1,9.276928E0,4.8175354E0,0E0,0E0,0E0,0E0,0E0,0E0,0E0,0E0],"parents":[2147483647,0,0,1,1,2,2,3,3,4,4,5,5,6,6],"right_children":[2,4,6,8,10,12,14,-1,-1,-1,-1,-1,-1,-1,-1],"split_conditions":[5E-1,-5E-1,1.5E0,5E0,5E-1,1.1666666E0,2.5E0,1.7692199E-2,6.1450247E-2,7.03879E-3,-1.8535306E-3,-6.7347563E-3,-1.6585357E-2,-2.665395E-2,-4.3374036E-2],"split_indices":[2,2,2,6,9,9,2,0,0,0,0,0,0,0,0],"split_type":[0,0,0,0,0,0,0,0,0,0,0,0,0,0,0],"sum_hessian":[2.4E2,1.52E2,8.8E1,4.2E1,1.1E2,6.2E1,2.6E1,4E1,2E0,8E1,3E1,5E1,1.2E1,2E1,6E0],"tree_param":{"num_deleted":"0","num_feature":"12","num_nodes":"15","size_leaf_vector":"1"}},{"base_weights":[-4.5823854E-5,6.007896E-1,-2.4284213E0,1.4442517E0,-1.9016315E-1,-1.4101094E-2,-3.1682155E0,1.276603E-2,6.1040595E-2,8.572756E-4,-5.79765E-3,-2.6400108E-2,-4.300227E-2],"categories":[],"categories_nodes":[],"categories_segments":[],"categories_sizes":[],"default_left":[0,0,0,0,0,0,0,0,0,0,0,0,0],"id":70,"left_children":[1,3,5,7,9,-1,11,-1,-1,-1,-1,-1,-1],"loss_changes":[3.5309097E2,1.2969955E2,3.169284E1,6.564131E1,1.0905945E1,0E0,4.791565E0,0E0,0E0,0E0,0E0,0E0,0E0],"parents":[2147483647,0,0,1,1,2,2,3,3,4,4,6,6],"right_children":[2,4,6,8,10,-1,12,-1,-1,-1,-1,-1,-1],"split_conditions":[1E0,0E0,1.5E0,5E0,5E-1,-1.4101094E-2,2.5E0,1.276603E-2,6.1040595E-2,8.572756E-4,-5.79765E-3,-2.6400108E-2,-4.300227E-2],"split_indices":[2,2,2,6,2,0,2,0,0,0,0,0,0],"split_type":[0,0,0,0,0,0,0,0,0,0,0,0,0],"sum_hessian":[2.4E2,1.93E2,4.7E1,9.3E1,1E2,2.1E1,2.6E1,9.1E1,2E0,5.9E1,4.1E1,2E1,6E0],"tree_param":{"num_deleted":"0","num_feature":"12","num_nodes":"13","size_leaf_vector":"1"}},{"base_weights":[-1.0662158E-4,5.951357E-1,-2.4058752E0,1.4305927E0,-1.8831076E-1,-1.3966476E-2,-3.1391025E0,1.26397405E-2,6.0633644E-2,-4.7033333E-4,-1.627254E-2,-2.6148664E-2,-4.263367E-2],"categories":[],"categories_nodes":[],"categories_segments":[],"categories_sizes":[],"default_left":[0,0,0,0,0,0,0,0,0,0,0,0,0],"id":71,"left_children":[1,3,5,7,9,-1,11,-1,-1,-1,-1,-1,-1],"loss_changes":[3.465475E2,1.2724933E2,3.1135437E1,6.48952E1,2.0455776E1,0E0,4.7651367E0,0E0,0E0,0E0,0E0,0E0,0E0],"parents":[2147483647,0,0,1,1,2,2,3,3,4,4,6,6],"right_children":[2,4,6,8,10,-1,12,-1,-1,-1,-1,-1,-1],"split_conditions":[1E0,0E0,1.5E0,5E0,2.3333333E0,-1.3966476E-2,2.5E0,1.26397405E-2,6.0633644E-2,-4.7033333E-4,-1.627254E-2,-2.6148664E-2,-4.263367E-2],"split_indices":[2,2,2,6,9,0,2,0,0,0,0,0,0],"split_type":[0,0,0,0,0,0,0,0,0,0,0,0,0],"sum_hessian":[2.4E2,1.93E2,4.7E1,9.3E1,1E2,2.1E1,2.6E1,9.1E1,2E0,9.2E1,8E0,2E1,6E0],"tree_param":{"num_deleted":"0","num_feature":"12","num_nodes":"13","size_leaf_vector":"1"}},{"base_weights":[-2.140979E-4,9.0439534E-1,-1.5553268E0,2.0670443E0,4.4585207E-1,-8.642398E-1,-3.1102583E0,1.7271725E-2,6.022944E-2,6.835718E-3,-1.8966896E-3,-6.5389047E-3,-1.6229764E-2,-2.5899619E-2,-4.2268246E-2],"categories":[],"categories_nodes":[],"categories_segments":[],"categories_sizes":[],"default_left":[0,0,0,0,0,0,0,0,0,0,0,0,0,0,0],"id":72,"left_children":[1,3,5,7,9,11,13,-1,-1,-1,-1,-1,-1,-1,-1],"loss_changes":[3.404381E2,8.0646515E1,9.2950775E1,4.741078E1,1.6899078E1,8.993534E0,4.7381897E0,0E0,0E0,0E0,0E0,0E0,0E0,0E0,0E0],"parents":[2147483647,0,0,1,1,2,2,3,3,4,4,5,5,6,6],"right_children":[2,4,6,8,10,12,14,-1,-1,-1,-1,-1,-1,-1,-1],"split_conditions":[5E-1,-5E-1,1.5E0,5E0,5E-1,1.1666666E0,2.5E0,1.7271725E-2,6.022944E-2,6.835718E-3,-1.8966896E-3,-6.5389047E-3,-1.6229764E-2,-2.5899619E-2,-4.2268246E-2],"split_indices":[2,2,2,6,9,9,2,0,0,0,0,0,0,0,0],"split_type":[0,0,0,0,0,0,0,0,0,0,0,0,0,0,0],"sum_hessian":[2.4E2,1.52E2,8.8E1,4.2E1,1.1E2,6.2E1,2.6E1,4E1,2E0,8E1,3E1,5E1,1.2E1,2E1,6E0],"tree_param":{"num_deleted":"0","num_feature":"12","num_nodes":"15","size_leaf_vector":"1"}},{"base_weights":[-2.4774956E-4,5.844995E-1,-2.363596E0,1.4055634E0,-1.8544611E-1,-1.3748725E-2,-3.081682E0,1.241028E-2,5.982793E-2,-6.3546636E-4,-1.8133039E-2,-2.5652973E-2,-4.1905962E-2],"categories":[],"categories_nodes":[],"categories_segments":[],"categories_sizes":[],"default_left":[0,0,0,0,0,0,0,0,0,0,0,0,0],"id":73,"left_children":[1,3,5,7,9,-1,11,-1,-1,-1,-1,-1,-1],"loss_changes":[3.3443427E2,1.2290253E2,2.9842499E1,6.3368103E1,1.9926706E1,0E0,4.710785E0,0E0,0E0,0E0,0E0,0E0,0E0],"parents":[2147483647,0,0,1,1,2,2,3,3,4,4,6,6],"right_children":[2,4,6,8,10,-1,12,-1,-1,-1,-1,-1,-1],"split_conditions":[1E0,0E0,1.5E0,5E0,2.8333333E0,-1.3748725E-2,2.5E0,1.241028E-2,5.982793E-2,-6.3546636E-4,-1.8133039E-2,-2.5652973E-2,-4.1905962E-2],"split_indices":[2,2,2,6,9,0,2,0,0,0,0,0,0],"split_type":[0,0,0,0,0,0,0,0,0,0,0,0,0],"sum_hessian":[2.4E2,1.93E2,4.7E1,9.3E1,1E2,2.1E1,2.6E1,9.1E1,2E0,9.4E1,6E0,2E1,6E0],"tree_param":{"num_deleted":"0","num_feature":"12","num_nodes":"13","size_leaf_vector":"1"}},{"base_weights":[-3.5983202E-4,5.355559E-1,-1.3440274E0,4.375582E-1,5.9429068E-2,-9.098241E-1,-3.5507522E0,7.463427E-3,2.6136504E-5,-5.1585934E-3,-1.27346115E-2,-1.5071359E-2,-3.8374294E-2],"categories":[],"categories_nodes":[],"categories_segments":[],"categories_sizes":[],"default_left":[0,0,0,0,0,0,0,0,0,0,0,0,0],"id":74,"left_children":[1,3,5,7,-1,9,11,-1,-1,-1,-1,-1,-1],"loss_changes":[1.7426212E2,8.90737E1,6.2882988E1,2.2964058E1,0E0,7.795429E0,6.6090393E-1,0E0,0E0,0E0,0E0,0E0,0E0],"parents":[2147483647,0,0,1,1,2,2,3,3,5,5,6,6],"right_children":[2,4,6,8,-1,10,12,-1,-1,-1,-1,-1,-1],"split_conditions":[6.666667E-1,1.55E1,3.3333333E0,1.25E-1,5.9429068E-2,6.25E-1,-3.3333334E-1,7.463427E-3,2.6136504E-5,-5.1585934E-3,-1.27346115E-2,-1.5071359E-2,-3.8374294E-2],"split_indices":[9,6,9,10,0,10,8,0,0,0,0,0,0],"split_type":[0,0,0,0,0,0,0,0,0,0,0,0,0],"sum_hessian":[2.4E2,1.72E2,6.8E1,1.7E2,2E0,5.8E1,1E1,9.9E1,7.1E1,2.9E1,2.9E1,2E0,8E0],"tree_param":{"num_deleted":"0","num_feature":"12","num_nodes":"13","size_leaf_vector":"1"}},{"base_weights":[-3.741569E-4,8.85236E-1,-1.5228235E0,2.0262349E0,4.352524E-1,-8.481415E-1,-3.0406804E0,3.415502E-2,1.6612245E-2,6.6643604E-3,-1.8284864E-3,-5.600293E-3,-1.3596218E-2,-2.5272356E-2,-4.1466307E-2],"categories":[],"categories_nodes":[],"categories_segments":[],"categories_sizes":[],"default_left":[0,0,0,0,0,0,0,0,0,0,0,0,0,0,0],"id":75,"left_children":[1,3,5,7,9,11,13,-1,-1,-1,-1,-1,-1,-1,-1],"loss_changes":[3.2628754E2,7.767297E1,8.856334E1,1.6131256E1,1.5983189E1,8.522488E0,4.852295E0,0E0,0E0,0E0,0E0,0E0,0E0,0E0,0E0],"parents":[2147483647,0,0,1,1,2,2,3,3,4,4,5,5,6,6],"right_children":[2,4,6,8,10,12,14,-1,-1,-1,-1,-1,-1,-1,-1],"split_conditions":[5E-1,-5E-1,1.5E0,-7.283096E-1,5E-1,1E0,2.5E0,3.415502E-2,1.6612245E-2,6.6643604E-3,-1.8284864E-3,-5.600293E-3,-1.3596218E-2,-2.5272356E-2,-4.1466307E-2],"split_indices":[2,2,2,1,9,2,2,0,0,0,0,0,0,0,0],"split_type":[0,0,0,0,0,0,0,0,0,0,0,0,0,0,0],"sum_hessian":[2.4E2,1.52E2,8.8E1,4.2E1,1.1E2,6.2E1,2.6E1,7E0,3.5E1,8E1,3E1,4.1E1,2.1E1,2E1,6E0],"tree_param":{"num_deleted":"0","num_feature":"12","num_nodes":"15","size_leaf_vector":"1"}},{"base_weights":[-4.9668626E-4,8.7674665E-1,-1.5085611E0,2.0071523E0,4.3094316E-1,-8.399652E-1,-3.0127454E0,1.6747802E-2,5.8805183E-2,6.598541E-3,-1.8108035E-3,-6.3528577E-3,-1.5783258E-2,-2.5031669E-2,-4.1110888E-2],"categories":[],"categories_nodes":[],"categories_segments":[],"categories_sizes":[],"default_left":[0,0,0,0,0,0,0,0,0,0,0,0,0,0,0],"id":76,"left_children":[1,3,5,7,9,11,13,-1,-1,-1,-1,-1,-1,-1,-1],"loss_changes":[3.20151E2,7.6237656E1,8.697595E1,4.5509567E1,1.5670465E1,8.518326E0,4.8209534E0,0E0,0E0,0E0,0E0,0E0,0E0,0E0,0E0],"parents":[2147483647,0,0,1,1,2,2,3,3,4,4,5,5,6,6],"right_children":[2,4,6,8,10,12,14,-1,-1,-1,-1,-1,-1,-1,-1],"split_conditions":[5E-1,-5E-1,1.5E0,5E0,5E-1,1.1666666E0,2.5E0,1.6747802E-2,5.8805183E-2,6.598541E-3,-1.8108035E-3,-6.3528577E-3,-1.5783258E-2,-2.5031669E-2,-4.1110888E-2],"split_indices":[2,2,2,6,9,9,2,0,0,0,0,0,0,0,0],"split_type":[0,0,0,0,0,0,0,0,0,0,0,0,0,0,0],"sum_hessian":[2.4E2,1.52E2,8.8E1,4.2E1,1.1E2,6.2E1,2.6E1,4E1,2E0,8E1,3E1,5E1,1.2E1,2E1,6E0],"tree_param":{"num_deleted":"0","num_feature":"12","num_nodes":"15","size_leaf_vector":"1"}},{"base_weights":[-5.2495615E-4,5.665771E-1,-2.2925513E0,1.3645635E0,-1.8171299E-1,-1.3384383E-2,-2.9850674E0,1.2037503E-2,5.8413137E-2,-6.298868E-4,-1.7670125E-2,-2.479327E-2,-4.075851E-2],"categories":[],"categories_nodes":[],"categories_segments":[],"categories_sizes":[],"default_left":[0,0,0,0,0,0,0,0,0,0,0,0,0],"id":77,"left_children":[1,3,5,7,9,-1,11,-1,-1,-1,-1,-1,-1],"loss_changes":[3.145538E2,1.16090256E2,2.7720108E1,6.0641037E1,1.8898272E1,0E0,4.789276E0,0E0,0E0,0E0,0E0,0E0,0E0],"parents":[2147483647,0,0,1,1,2,2,3,3,4,4,6,6],"right_children":[2,4,6,8,10,-1,12,-1,-1,-1,-1,-1,-1],"split_conditions":[1E0,0E0,1.5E0,5E0,2.8333333E0,-1.3384383E-2,2.5E0,1.2037503E-2,5.8413137E-2,-6.298868E-4,-1.7670125E-2,-2.479327E-2,-4.075851E-2],"split_indices":[2,2,2,6,9,0,2,0,0,0,0,0,0],"split_type":[0,0,0,0,0,0,0,0,0,0,0,0,0],"sum_hessian":[2.4E2,1.93E2,4.7E1,9.3E1,1E2,2.1E1,2.6E1,9.1E1,2E0,9.4E1,6E0,2E1,6E0],"tree_param":{"num_deleted":"0","num_feature":"12","num_nodes":"13","size_leaf_vector":"1"}},{"base_weights":[-6.3162524E-4,8.610457E-1,-1.481935E0,7.5717133E-1,5.8023732E-2,-8.259649E-1,-2.9576454E0,1.1918419E-2,7.805697E-4,-6.2443977E-3,-1.5530278E-2,-2.4557156E-2,-4.0409137E-2],"categories":[],"categories_nodes":[],"categories_segments":[],"categories_sizes":[],"default_left":[0,0,0,0,0,0,0,0,0,0,0,0,0],"id":78,"left_children":[1,3,5,7,-1,9,11,-1,-1,-1,-1,-1,-1],"loss_changes":[3.0888974E2,7.4138016E1,8.371106E1,4.4480812E1,0E0,8.261078E0,4.7572174E0,0E0,0E0,0E0,0E0,0E0,0E0],"parents":[2147483647,0,0,1,1,2,2,3,3,5,5,6,6],"right_children":[2,4,6,8,-1,10,12,-1,-1,-1,-1,-1,-1],"split_conditions":[5E-1,5E0,1.5E0,0E0,5.8023732E-2,1.1666666E0,2.5E0,1.1918419E-2,7.805697E-4,-6.2443977E-3,-1.5530278E-2,-2.4557156E-2,-4.0409137E-2],"split_indices":[2,6,2,2,0,9,2,0,0,0,0,0,0],"split_type":[0,0,0,0,0,0,0,0,0,0,0,0,0],"sum_hessian":[2.4E2,1.52E2,8.8E1,1.5E2,2E0,6.2E1,2.6E1,9.1E1,5.9E1,5E1,1.2E1,2E1,6E0],"tree_param":{"num_deleted":"0","num_feature":"12","num_nodes":"13","size_leaf_vector":"1"}},{"base_weights":[-6.914416E-4,5.564079E-1,-2.252287E0,1.3388944E0,-1.7735586E-1,-1.31759E-2,-2.9304738E0,1.18005425E-2,5.7636924E-2,7.728799E-4,-5.3691E-3,-3.1047199E-2,-1.152378E-2],"categories":[],"categories_nodes":[],"categories_segments":[],"categories_sizes":[],"default_left":[0,0,0,0,0,0,0,0,0,0,0,0,0],"id":79,"left_children":[1,3,5,7,9,-1,11,-1,-1,-1,-1,-1,-1],"loss_changes":[3.035545E2,1.1162455E2,2.6565994E1,5.9265045E1,9.28888E0,0E0,4.787491E0,0E0,0E0,0E0,0E0,0E0,0E0],"parents":[2147483647,0,0,1,1,2,2,3,3,4,4,6,6],"right_children":[2,4,6,8,10,-1,12,-1,-1,-1,-1,-1,-1],"split_conditions":[1E0,0E0,1.5E0,5E0,5E-1,-1.31759E-2,9.7E0,1.18005425E-2,5.7636924E-2,7.728799E-4,-5.3691E-3,-3.1047199E-2,-1.152378E-2],"split_indices":[2,2,2,6,2,0,11,0,0,0,0,0,0],"split_type":[0,0,0,0,0,0,0,0,0,0,0,0,0],"sum_hessian":[2.4E2,1.93E2,4.7E1,9.3E1,1E2,2.1E1,2.6E1,9.1E1,2E0,5.9E1,4.1E1,2.3E1,3E0],"tree_param":{"num_deleted":"0","num_feature":"12","num_nodes":"13","size_leaf_vector":"1"}},{"base_weights":[-6.4678903E-4,5.51178E-1,-2.230925E0,1.3262458E0,-1.7562942E-1,-1.3050129E-2,-2.9027452E0,1.9474817E-2,7.870265E-3,7.6526514E-4,-5.316705E-3,-2.4055459E-2,-3.979665E-2],"categories":[],"categories_nodes":[],"categories_segments":[],"categories_sizes":[],"default_left":[0,0,0,0,0,0,0,0,0,0,0,0,0],"id":80,"left_children":[1,3,5,7,9,-1,11,-1,-1,-1,-1,-1,-1],"loss_changes":[2.9783383E2,1.09517975E2,2.6070099E1,2.9955627E1,9.108252E0,0E0,4.8836975E0,0E0,0E0,0E0,0E0,0E0,0E0],"parents":[2147483647,0,0,1,1,2,2,3,3,4,4,6,6],"right_children":[2,4,6,8,10,-1,12,-1,-1,-1,-1,-1,-1],"split_conditions":[1E0,0E0,1.5E0,-5E-1,5E-1,-1.3050129E-2,2.5E0,1.9474817E-2,7.870265E-3,7.6526514E-4,-5.316705E-3,-2.4055459E-2,-3.979665E-2],"split_indices":[2,2,2,2,2,0,2,0,0,0,0,0,0],"split_type":[0,0,0,0,0,0,0,0,0,0,0,0,0],"sum_hessian":[2.4E2,1.93E2,4.7E1,9.3E1,1E2,2.1E1,2.6E1,4.2E1,5.1E1,5.9E1,4.1E1,2E1,6E0],"tree_param":{"num_deleted":"0","num_feature":"12","num_nodes":"13","size_leaf_vector":"1"}},{"base_weights":[-8.6485996E-4,5.457837E-1,-2.2102182E0,1.3132747E0,-1.7391866E-1,-1.2925561E-2,-2.876083E0,1.1555541E-2,5.71228E-2,-5.687292E-4,-1.737551E-2,-2.3826357E-2,-3.9455548E-2],"categories":[],"categories_nodes":[],"categories_segments":[],"categories_sizes":[],"default_left":[0,0,0,0,0,0,0,0,0,0,0,0,0],"id":81,"left_children":[1,3,5,7,9,-1,11,-1,-1,-1,-1,-1,-1],"loss_changes":[2.922716E2,1.0738724E2,2.5612366E1,5.861763E1,1.8385847E1,0E0,4.847809E0,0E0,0E0,0E0,0E0,0E0,0E0],"parents":[2147483647,0,0,1,1,2,2,3,3,4,4,6,6],"right_children":[2,4,6,8,10,-1,12,-1,-1,-1,-1,-1,-1],"split_conditions":[1E0,0E0,1.5E0,5E0,2.8333333E0,-1.2925561E-2,2.5E0,1.1555541E-2,5.71228E-2,-5.687292E-4,-1.737551E-2,-2.3826357E-2,-3.9455548E-2],"split_indices":[2,2,2,6,9,0,2,0,0,0,0,0,0],"split_type":[0,0,0,0,0,0,0,0,0,0,0,0,0],"sum_hessian":[2.4E2,1.93E2,4.7E1,9.3E1,1E2,2.1E1,2.6E1,9.1E1,2E0,9.4E1,6E0,2E1,6E0],"tree_param":{"num_deleted":"0","num_feature":"12","num_nodes":"13","size_leaf_vector":"1"}},{"base_weights":[-9.6181023E-4,5.4058766E-1,-2.1897042E0,1.3008734E0,-1.7235743E-1,-1.2802193E-2,-2.8496656E0,1.144125E-2,5.6741994E-2,-3.9540525E-4,-1.5256478E-2,-2.3599438E-2,-3.911736E-2],"categories":[],"categories_nodes":[],"categories_segments":[],"categories_sizes":[],"default_left":[0,0,0,0,0,0,0,0,0,0,0,0,0],"id":82,"left_children":[1,3,5,7,9,-1,11,-1,-1,-1,-1,-1,-1],"loss_changes":[2.86844E2,1.0538037E2,2.5162598E1,5.7946106E1,1.80934E1,0E0,4.811737E0,0E0,0E0,0E0,0E0,0E0,0E0],"parents":[2147483647,0,0,1,1,2,2,3,3,4,4,6,6],"right_children":[2,4,6,8,10,-1,12,-1,-1,-1,-1,-1,-1],"split_conditions":[1E0,0E0,1.5E0,5E0,2.3333333E0,-1.2802193E-2,2.5E0,1.144125E-2,5.6741994E-2,-3.9540525E-4,-1.5256478E-2,-2.3599438E-2,-3.911736E-2],"split_indices":[2,2,2,6,9,0,2,0,0,0,0,0,0],"split_type":[0,0,0,0,0,0,0,0,0,0,0,0,0],"sum_hessian":[2.4E2,1.93E2,4.7E1,9.3E1,1E2,2.1E1,2.6E1,9.1E1,2E0,9.2E1,8E0,2E1,6E0],"tree_param":{"num_deleted":"0","num_feature":"12","num_nodes":"13","size_leaf_vector":"1"}},{"base_weights":[-1.0469207E-3,8.2228136E-1,-1.4164196E0,7.211916E-1,5.6363728E-2,-7.909052E-1,-2.8234935E0,1.582126E-2,3.9669154E-3,-5.94252E-3,-1.5015517E-2,-2.3374697E-2,-3.8782082E-2],"categories":[],"categories_nodes":[],"categories_segments":[],"categories_sizes":[],"default_left":[0,0,0,0,0,0,0,0,0,0,0,0,0],"id":83,"left_children":[1,3,5,7,-1,9,11,-1,-1,-1,-1,-1,-1],"loss_changes":[2.8200595E2,7.039339E1,7.609979E1,4.155774E1,0E0,7.9120026E0,4.7754517E0,0E0,0E0,0E0,0E0,0E0,0E0],"parents":[2147483647,0,0,1,1,2,2,3,3,5,5,6,6],"right_children":[2,4,6,8,-1,10,12,-1,-1,-1,-1,-1,-1],"split_conditions":[5E-1,5E0,1.5E0,-5E-1,5.6363728E-2,1.1666666E0,2.5E0,1.582126E-2,3.9669154E-3,-5.94252E-3,-1.5015517E-2,-2.3374697E-2,-3.8782082E-2],"split_indices":[2,6,2,2,0,9,2,0,0,0,0,0,0],"split_type":[0,0,0,0,0,0,0,0,0,0,0,0,0],"sum_hessian":[2.4E2,1.52E2,8.8E1,1.5E2,2E0,6.2E1,2.6E1,4E1,1.1E2,5E1,1.2E1,2E1,6E0],"tree_param":{"num_deleted":"0","num_feature":"12","num_nodes":"13","size_leaf_vector":"1"}},{"base_weights":[-1.0650286E-3,5.3094465E-1,-2.1512485E0,1.2785076E0,-1.7006393E-1,-1.2602642E-2,-2.7975597E0,1.1237319E-2,5.5987954E-2,-5.5384304E-4,-1.7021352E-2,-2.9684894E-2,-1.0725928E-2],"categories":[],"categories_nodes":[],"categories_segments":[],"categories_sizes":[],"default_left":[0,0,0,0,0,0,0,0,0,0,0,0,0],"id":84,"left_children":[1,3,5,7,9,-1,11,-1,-1,-1,-1,-1,-1],"loss_changes":[2.768265E2,1.0188275E2,2.411528E1,5.6563995E1,1.7651161E1,0E0,4.7769012E0,0E0,0E0,0E0,0E0,0E0,0E0],"parents":[2147483647,0,0,1,1,2,2,3,3,4,4,6,6],"right_children":[2,4,6,8,10,-1,12,-1,-1,-1,-1,-1,-1],"split_conditions":[1E0,0E0,1.5E0,5E0,2.8333333E0,-1.2602642E-2,9.7E0,1.1237319E-2,5.5987954E-2,-5.5384304E-4,-1.7021352E-2,-2.9684894E-2,-1.0725928E-2],"split_indices":[2,2,2,6,9,0,11,0,0,0,0,0,0],"split_type":[0,0,0,0,0,0,0,0,0,0,0,0,0],"sum_hessian":[2.4E2,1.93E2,4.7E1,9.3E1,1E2,2.1E1,2.6E1,9.1E1,2E0,9.4E1,6E0,2.3E1,3E0],"tree_param":{"num_deleted":"0","num_feature":"12","num_nodes":"13","size_leaf_vector":"1"}},{"base_weights":[-1.0686693E-3,8.07569E-1,-1.3911867E0,1.8713784E0,3.8818732E-1,-7.777215E-1,-2.7710798E0,3.0263657E-2,1.4766358E-2,6.089647E-3,-2.0120484E-3,-5.8410238E-3,-1.4774795E-2,-2.362856E-2,-4.094693E-2],"categories":[],"categories_nodes":[],"categories_segments":[],"categories_sizes":[],"default_left":[0,0,0,0,0,0,0,0,0,0,0,0,0,0,0],"id":85,"left_children":[1,3,5,7,9,11,13,-1,-1,-1,-1,-1,-1,-1,-1],"loss_changes":[2.72032E2,6.753331E1,7.3184845E1,1.5135849E1,1.4566341E1,7.6726494E0,4.913727E0,0E0,0E0,0E0,0E0,0E0,0E0,0E0,0E0],"parents":[2147483647,0,0,1,1,2,2,3,3,4,4,5,5,6,6],"right_children":[2,4,6,8,10,12,14,-1,-1,-1,-1,-1,-1,-1,-1],"split_conditions":[5E-1,-5E-1,1.5E0,-1.6666667E-1,5E-1,1.1666666E0,3E0,3.0263657E-2,1.4766358E-2,6.089647E-3,-2.0120484E-3,-5.8410238E-3,-1.4774795E-2,-2.362856E-2,-4.094693E-2],"split_indices":[2,2,2,9,9,9,2,0,0,0,0,0,0,0,0],"split_type":[0,0,0,0,0,0,0,0,0,0,0,0,0,0,0],"sum_hessian":[2.4E2,1.52E2,8.8E1,4.2E1,1.1E2,6.2E1,2.6E1,9E0,3.3E1,8E1,3E1,5E1,1.2E1,2.2E1,4E0],"tree_param":{"num_deleted":"0","num_feature":"12","num_nodes":"15","size_leaf_vector":"1"}},{"base_weights":[-1.2076761E-3,5.2133155E-1,-2.1131117E0,1.2558277E0,-1.6742061E-1,-1.2406281E-2,-2.745761E0,1.1024338E-2,5.5412956E-2,-5.431346E-4,-1.6785288E-2,-2.3402551E-2,-4.0619355E-2],"categories":[],"categories_nodes":[],"categories_segments":[],"categories_sizes":[],"default_left":[0,0,0,0,0,0,0,0,0,0,0,0,0],"id":86,"left_children":[1,3,5,7,9,-1,11,-1,-1,-1,-1,-1,-1],"loss_changes":[2.670578E2,9.835208E1,2.3088394E1,5.568332E1,1.7171465E1,0E0,4.904373E0,0E0,0E0,0E0,0E0,0E0,0E0],"parents":[2147483647,0,0,1,1,2,2,3,3,4,4,6,6],"right_children":[2,4,6,8,10,-1,12,-1,-1,-1,-1,-1,-1],"split_conditions":[1E0,0E0,1.5E0,5E0,2.8333333E0,-1.2406281E-2,3E0,1.1024338E-2,5.5412956E-2,-5.431346E-4,-1.6785288E-2,-2.3402551E-2,-4.0619355E-2],"split_indices":[2,2,2,6,9,0,2,0,0,0,0,0,0],"split_type":[0,0,0,0,0,0,0,0,0,0,0,0,0],"sum_hessian":[2.4E2,1.93E2,4.7E1,9.3E1,1E2,2.1E1,2.6E1,9.1E1,2E0,9.4E1,6E0,2.2E1,4E0],"tree_param":{"num_deleted":"0","num_feature":"12","num_nodes":"13","size_leaf_vector":"1"}},{"base_weights":[-1.3096125E-3,7.929545E-1,-1.3667152E0,6.940992E-1,5.5043537E-2,-7.647532E-1,-2.7206743E0,1.5279205E-2,3.7985798E-3,-5.7412363E-3,-1.45378085E-2,-2.2448508E-2,-3.759476E-2],"categories":[],"categories_nodes":[],"categories_segments":[],"categories_sizes":[],"default_left":[0,0,0,0,0,0,0,0,0,0,0,0,0],"id":87,"left_children":[1,3,5,7,-1,9,11,-1,-1,-1,-1,-1,-1],"loss_changes":[2.6244647E2,6.743871E1,7.0457184E1,3.8984787E1,0E0,7.440342E0,4.90625E0,0E0,0E0,0E0,0E0,0E0,0E0],"parents":[2147483647,0,0,1,1,2,2,3,3,5,5,6,6],"right_children":[2,4,6,8,-1,10,12,-1,-1,-1,-1,-1,-1],"split_conditions":[5E-1,5E0,1.5E0,-5E-1,5.5043537E-2,1.1666666E0,2.5E0,1.5279205E-2,3.7985798E-3,-5.7412363E-3,-1.45378085E-2,-2.2448508E-2,-3.759476E-2],"split_indices":[2,6,2,2,0,9,2,0,0,0,0,0,0],"split_type":[0,0,0,0,0,0,0,0,0,0,0,0,0],"sum_hessian":[2.4E2,1.52E2,8.8E1,1.5E2,2E0,6.2E1,2.6E1,4E1,1.1E2,5E1,1.2E1,2E1,6E0],"tree_param":{"num_deleted":"0","num_feature":"12","num_nodes":"13","size_leaf_vector":"1"}},{"base_weights":[-1.322402E-3,5.120294E-1,-2.0760918E0,1.2342422E0,-1.651986E-1,-1.2213073E-2,-2.6956906E0,2.626444E-2,9.984755E-3,6.940212E-4,-4.964092E-3,-2.2950793E-2,-3.999365E-2],"categories":[],"categories_nodes":[],"categories_segments":[],"categories_sizes":[],"default_left":[0,0,0,0,0,0,0,0,0,0,0,0,0],"id":88,"left_children":[1,3,5,7,9,-1,11,-1,-1,-1,-1,-1,-1],"loss_changes":[2.577489E2,9.508983E1,2.2129654E1,2.8231613E1,7.8823786E0,0E0,4.922348E0,0E0,0E0,0E0,0E0,0E0,0E0],"parents":[2147483647,0,0,1,1,2,2,3,3,4,4,6,6],"right_children":[2,4,6,8,10,-1,12,-1,-1,-1,-1,-1,-1],"split_conditions":[1E0,0E0,1.5E0,-1E0,5E-1,-1.2213073E-2,3E0,2.626444E-2,9.984755E-3,6.940212E-4,-4.964092E-3,-2.2950793E-2,-3.999365E-2],"split_indices":[2,2,2,2,2,0,2,0,0,0,0,0,0],"split_type":[0,0,0,0,0,0,0,0,0,0,0,0,0],"sum_hessian":[2.4E2,1.93E2,4.7E1,9.3E1,1E2,2.1E1,2.6E1,1.2E1,8.1E1,5.9E1,4.1E1,2.2E1,4E0],"tree_param":{"num_deleted":"0","num_feature":"12","num_nodes":"13","size_leaf_vector":"1"}},{"base_weights":[-1.4880643E-3,5.0707436E-1,-2.0568967E0,1.8098122E0,1.3520062E-1,-1.2096478E-2,-2.6710665E0,2.9414997E-2,1.4237332E-2,7.12943E-3,-1.6358952E-3,-2.2731278E-2,-3.9673705E-2],"categories":[],"categories_nodes":[],"categories_segments":[],"categories_sizes":[],"default_left":[0,0,0,0,0,0,0,0,0,0,0,0,0],"id":89,"left_children":[1,3,5,7,9,-1,11,-1,-1,-1,-1,-1,-1],"loss_changes":[2.5296117E2,9.373938E1,2.1745972E1,1.4599686E1,2.6355436E1,0E0,4.9095917E0,0E0,0E0,0E0,0E0,0E0,0E0],"parents":[2147483647,0,0,1,1,2,2,3,3,4,4,6,6],"right_children":[2,4,6,8,10,-1,12,-1,-1,-1,-1,-1,-1],"split_conditions":[1E0,-5E-1,1.5E0,-1.6666667E-1,0E0,-1.2096478E-2,3E0,2.9414997E-2,1.4237332E-2,7.12943E-3,-1.6358952E-3,-2.2731278E-2,-3.9673705E-2],"split_indices":[2,2,2,9,2,0,2,0,0,0,0,0,0],"split_type":[0,0,0,0,0,0,0,0,0,0,0,0,0],"sum_hessian":[2.4E2,1.93E2,4.7E1,4.2E1,1.51E2,2.1E1,2.6E1,9E0,3.3E1,5.1E1,1E2,2.2E1,4E0],"tree_param":{"num_deleted":"0","num_feature":"12","num_nodes":"13","size_leaf_vector":"1"}},{"base_weights":[-1.5780184E-3,7.713499E-1,-1.3303015E0,6.735672E-1,5.435964E-2,-7.4502915E-1,-2.6466668E0,1.4824268E-2,3.68731E-3,-4.899669E-3,-1.1981011E-2,-2.2513844E-2,-3.935632E-2],"categories":[],"categories_nodes":[],"categories_segments":[],"categories_sizes":[],"default_left":[0,0,0,0,0,0,0,0,0,0,0,0,0],"id":90,"left_children":[1,3,5,7,-1,9,11,-1,-1,-1,-1,-1,-1],"loss_changes":[2.4853496E2,6.612466E1,6.659665E1,3.6685402E1,0E0,6.693348E0,4.8960114E0,0E0,0E0,0E0,0E0,0E0,0E0],"parents":[2147483647,0,0,1,1,2,2,3,3,5,5,6,6],"right_children":[2,4,6,8,-1,10,12,-1,-1,-1,-1,-1,-1],"split_conditions":[5E-1,5E0,1.5E0,-5E-1,5.435964E-2,1E0,3E0,1.4824268E-2,3.68731E-3,-4.899669E-3,-1.1981011E-2,-2.2513844E-2,-3.935632E-2],"split_indices":[2,6,2,2,0,2,2,0,0,0,0,0,0],"split_type":[0,0,0,0,0,0,0,0,0,0,0,0,0],"sum_hessian":[2.4E2,1.52E2,8.8E1,1.5E2,2E0,6.2E1,2.6E1,4E1,1.1E2,4.1E1,2.1E1,2.2E1,4E0],"tree_param":{"num_deleted":"0","num_feature":"12","num_nodes":"13","size_leaf_vector":"1"}},{"base_weights":[-1.5874048E-3,7.641117E-1,-1.3178837E0,6.669531E-1,5.3997245E-2,-7.378475E-1,-2.6224911E0,1.4679645E-2,3.6507542E-3,-5.155677E-3,-1.3089831E-2,-2.1585222E-2,-3.6397558E-2],"categories":[],"categories_nodes":[],"categories_segments":[],"categories_sizes":[],"default_left":[0,0,0,0,0,0,0,0,0,0,0,0,0],"id":91,"left_children":[1,3,5,7,-1,9,11,-1,-1,-1,-1,-1,-1],"loss_changes":[2.4390778E2,6.530826E1,6.5413025E1,3.5977013E1,0E0,7.323101E0,4.8869324E0,0E0,0E0,0E0,0E0,0E0,0E0],"parents":[2147483647,0,0,1,1,2,2,3,3,5,5,6,6],"right_children":[2,4,6,8,-1,10,12,-1,-1,-1,-1,-1,-1],"split_conditions":[5E-1,5E0,1.5E0,-5E-1,5.3997245E-2,1E0,2.5E0,1.4679645E-2,3.6507542E-3,-5.155677E-3,-1.3089831E-2,-2.1585222E-2,-3.6397558E-2],"split_indices":[2,6,2,2,0,9,2,0,0,0,0,0,0],"split_type":[0,0,0,0,0,0,0,0,0,0,0,0,0],"sum_hessian":[2.4E2,1.52E2,8.8E1,1.5E2,2E0,6.2E1,2.6E1,4E1,1.1E2,4.6E1,1.6E1,2E1,6E0],"tree_param":{"num_deleted":"0","num_feature":"12","num_nodes":"13","size_leaf_vector":"1"}},{"base_weights":[-1.5875314E-3,4.9342957E-1,-2.0022485E0,1.1917624E0,-1.6138946E-1,-1.1795779E-2,-2.5984154E0,2.5499215E-2,9.619108E-3,